PC1,PC2,PC3,PC4,PC5,PC6,PC7,PC8,PC9,PC10,PC11,PC12,PC13,PC14,PC15,PC16,PC17,PC18,PC19,PC20,PC21,PC22,PC23,PC24,PC25,PC26,PC27,PC28,PC29,PC30,PC31,PC32,PC33,PC34,PC35,PC36,PC37,PC38,PC39,PC40,PC41,PC42,PC43,PC44,PC45,PC46,PC47,PC48,PC49,PC50,PC51,PC52,PC53,PC54,PC55,PC56,PC57,PC58,PC59,PC60,PC61,PC62,PC63,PC64,PC65,PC66,PC67,PC68,PC69,PC70,PC71,PC72,PC73,PC74,PC75,PC76,PC77,PC78,PC79,PC80,PC81,PC82,PC83,PC84,PC85,PC86,PC87,PC88,PC89,PC90,PC91,PC92,PC93,PC94,PC95,PC96,PC97,PC98,PC99,PC100,PC101,PC102,PC103,PC104,PC105,PC106,PC107,PC108,PC109,PC110,PC111,PC112,PC113,PC114,PC115,PC116,PC117,PC118,PC119,PC120,PC121,PC122,PC123,PC124,PC125,PC126,PC127,PC128,PC129,PC130,PC131,PC132,PC133,PC134,PC135,PC136,PC137,PC138,PC139,PC140,PC141,PC142,PC143,PC144,PC145,PC146,PC147,PC148,PC149,PC150,PC151,PC152,PC153,PC154,PC155,PC156,PC157,PC158,PC159,PC160,PC161,PC162,PC163,PC164,PC165,PC166,PC167,PC168,PC169,PC170,PC171,PC172,PC173,PC174,PC175,PC176,PC177,PC178,PC179,PC180,PC181,PC182,PC183,PC184,PC185,PC186,PC187,PC188,PC189,PC190,PC191,PC192,PC193,PC194,PC195,PC196,PC197,PC198,PC199,PC200,PC201,PC202,PC203,PC204,PC205,PC206,PC207,PC208,PC209,PC210,PC211,PC212,PC213,PC214,PC215,PC216,PC217,PC218,PC219,PC220,PC221,PC222,PC223,PC224,PC225,PC226,PC227,PC228,PC229,PC230,PC231,PC232,PC233,PC234,PC235,PC236,PC237,PC238,PC239,PC240,PC241,PC242,PC243,PC244,PC245,PC246,PC247,PC248,PC249,PC250,PC251,PC252,PC253,PC254,PC255,PC256,PC257,PC258,PC259,PC260,PC261,PC262,PC263,PC264,PC265,PC266,PC267,PC268,PC269,PC270,PC271,PC272,PC273,PC274,PC275,PC276,PC277,PC278,PC279,PC280,PC281,PC282,PC283,PC284,PC285,PC286,PC287,PC288,PC289,PC290,PC291,PC292,PC293,PC294,PC295,PC296,PC297,PC298,PC299,PC300,PC301,PC302,PC303,PC304,PC305,PC306,PC307,PC308,PC309,PC310,PC311,PC312,PC313,PC314,PC315,PC316,PC317,PC318,PC319,PC320,PC321,PC322,PC323,PC324,PC325,PC326,PC327,PC328,PC329,PC330,PC331,PC332,PC333,PC334,PC335,PC336,PC337,PC338,PC339,PC340,PC341,PC342,PC343,PC344,PC345,PC346,PC347,PC348,PC349,PC350,PC351,PC352,PC353,PC354,PC355,PC356,PC357,PC358,PC359,PC360,PC361,PC362,PC363,PC364,PC365,PC366,PC367,PC368,PC369,PC370,PC371,PC372,PC373,PC374,PC375,PC376,PC377,PC378,PC379,PC380,PC381,PC382,PC383,PC384,PC385,PC386,PC387,PC388,PC389,PC390,PC391,PC392,PC393,PC394,PC395,PC396,PC397,PC398,PC399,PC400,PC401,PC402,PC403,PC404,PC405,PC406,PC407,PC408,PC409,PC410,PC411,PC412,PC413,PC414,PC415,PC416,PC417,PC418,PC419,PC420,PC421,PC422,PC423,PC424,PC425,PC426,PC427,PC428,PC429,PC430,PC431,PC432,PC433,PC434,PC435,PC436,PC437,PC438,PC439,PC440,PC441,PC442,PC443,PC444,PC445,PC446,PC447,PC448,PC449,PC450,PC451,PC452,PC453,PC454,PC455,PC456,PC457,PC458,PC459,PC460,PC461,PC462,PC463,PC464,PC465,PC466,PC467,PC468,PC469,PC470,PC471,PC472,PC473,PC474,PC475,PC476,PC477,PC478,PC479,PC480,PC481,PC482,PC483,PC484,PC485,PC486,PC487,PC488,PC489,PC490,PC491,PC492,PC493,PC494,PC495,PC496,PC497,PC498,PC499,PC500,PC501,PC502,PC503,PC504,PC505,PC506,PC507,PC508,PC509,PC510,PC511,PC512,PC513,PC514,PC515,PC516,PC517,PC518,PC519,PC520,PC521,PC522,PC523,PC524,PC525,PC526,PC527,PC528,PC529,PC530,PC531,PC532,PC533,PC534,PC535,PC536,PC537,PC538,PC539,PC540,PC541,PC542,PC543,PC544,PC545,PC546,PC547,PC548,PC549,PC550,PC551,PC552,PC553,PC554,PC555,PC556,PC557,PC558,PC559,PC560,PC561,PC562,PC563,PC564,PC565,PC566,PC567,PC568,PC569,PC570,PC571,PC572,PC573,PC574,PC575,PC576,PC577,PC578,PC579,PC580,PC581,PC582,PC583,PC584,PC585,PC586,PC587,PC588,PC589,PC590,PC591,PC592,PC593,PC594,PC595,PC596,PC597,PC598,PC599,PC600,PC601,PC602,PC603,PC604,PC605,PC606,PC607,PC608,PC609,PC610,PC611,PC612,PC613,PC614,PC615,PC616,PC617,PC618,PC619,PC620,PC621,PC622,PC623,PC624,PC625,PC626,PC627,PC628,PC629,PC630,PC631,PC632,PC633,PC634,PC635,PC636,PC637,PC638,PC639,PC640,PC641,PC642,PC643,PC644,PC645,PC646,PC647,PC648,PC649,PC650,PC651,PC652,PC653,PC654,PC655,PC656,PC657,PC658,PC659,PC660,PC661,PC662,PC663,PC664,PC665,PC666,PC667,PC668,PC669,PC670,PC671,PC672,PC673,PC674,PC675,PC676,PC677,PC678,PC679,PC680,PC681,PC682,PC683,PC684,PC685,PC686,PC687,PC688,PC689,PC690,PC691,PC692,PC693,PC694,PC695,PC696,PC697,PC698,PC699,PC700,PC701,PC702,PC703,PC704,PC705,PC706,PC707,PC708,PC709,PC710,PC711,PC712,PC713,PC714,PC715,PC716,PC717,PC718,PC719,PC720,PC721,PC722,PC723,PC724,PC725,PC726,PC727,PC728,PC729,PC730,PC731,PC732,PC733,PC734,PC735,PC736,PC737,PC738,PC739,PC740,PC741,PC742,PC743,PC744,PC745,PC746,PC747,PC748,PC749,PC750,PC751,PC752,PC753,PC754,PC755,PC756,PC757,PC758,PC759,PC760,PC761,PC762,PC763,PC764,PC765,PC766,PC767,PC768,PC769,PC770,PC771,PC772,PC773,PC774,PC775,PC776,PC777,PC778,PC779,PC780,PC781,PC782,PC783,PC784,PC785,PC786,PC787,PC788,PC789,PC790,PC791,PC792,PC793,PC794,PC795,PC796,PC797,PC798,PC799,PC800,PC801,PC802,PC803,PC804,PC805,PC806,PC807,PC808,PC809,PC810,PC811,PC812,PC813,PC814,PC815,PC816,PC817,PC818,PC819,PC820,PC821,PC822,PC823,PC824,PC825,PC826,PC827,PC828,PC829,PC830,PC831,PC832,PC833,PC834,PC835,PC836,PC837,PC838,PC839,PC840,PC841,PC842,PC843,PC844,PC845,PC846,PC847,PC848,PC849,PC850,PC851,PC852,PC853,PC854,PC855,PC856,PC857,PC858,PC859,PC860,PC861,PC862,PC863,PC864,PC865,PC866,PC867,PC868,PC869,PC870,PC871,PC872,PC873,PC874,PC875,PC876,PC877,PC878,PC879,PC880,PC881,PC882,PC883,PC884,PC885,PC886,PC887,PC888,PC889,PC890,PC891,PC892,PC893,PC894,PC895,PC896,PC897,PC898,PC899,PC900,PC901,PC902,PC903,PC904,PC905,PC906,PC907,PC908,PC909,PC910,PC911,PC912,time (ps)
12.307025337744665,-1.1571736532631096,2.3000876475856984,-7.339711260057159,-0.15064778833337444,-1.0822367708545866,3.7867052919967428,2.188536010894066,6.306189693551052,2.9859587468997075,-1.4196011039457945,2.7856246353601692,3.2926693907530233,-1.0927357851201112,1.3211768182659611,0.2790079691087597,-3.229799195825457,-0.4233409017979606,2.6859431321174663,2.655632784622108,-0.0036652909808993495,1.0092119226183323,1.5305696261226958,0.44808107397508123,-0.7594000910068264,-0.4182639878690074,-1.8023815883461116,0.3500261374615912,-0.11703396159684218,0.1913815398878596,-0.34082672373107403,1.1739573006032176,0.7782125057322675,1.5504188904829084,-1.0925269627594232,-0.8511757561433115,-0.2564404056019478,0.09454255741263162,0.17633888064343034,0.07014591829813188,0.39568573660718886,-0.12132962621048843,0.7228370029682905,-0.3461211186656945,0.7498234549625223,-0.9222986949432508,-0.4968268854114156,-0.910491728295409,-0.4697713128025718,0.23964461810300164,-0.281029163539973,0.3390403837356641,0.780027585528239,0.5741705944849367,0.7316577754246243,0.02273073939551462,0.3184832982776389,0.26273319076218643,0.40389231599828,-1.0001450209981881,1.1778876109699739,0.43429867987230636,-0.5458646711647914,0.2992111452998544,0.10020514437450805,-0.7751002326130534,0.6206883513210226,-0.40797907961684216,-0.7436445997127633,0.1749353033204943,-0.6567489043422138,0.1902936157567069,1.1268147047644255,1.0034842518503482,-1.478179807692421,0.3301569044011794,0.9598382361180864,-0.1883243267773875,-0.34383411482684234,0.5774409545726976,-0.13248899045250628,1.1862128654404738,0.9172114706408809,0.22601971624554085,-0.6537935628784848,-0.5598130372549903,0.14782342240998386,-0.4306939861808662,-0.060705237197017314,-0.33121903953234094,-0.9498619996812665,0.05587382332696136,-0.11283874928343127,-0.09097024661321818,0.6123606068744296,0.15966383407667473,-0.2854760564627011,-0.3319419867506462,0.005672892545725061,-0.08982467482420309,0.11687308380171924,-0.061094064878512336,-0.5518008172492904,-0.07186552498144849,0.009569472089664105,-0.2592426445482597,0.09261621416317081,-0.18611414529539627,0.408437097135869,-0.379284905606739,0.7670563258082423,0.4557976033331451,0.27425406263403096,-0.4993485791347191,-0.288564280881959,-0.45780808264185957,-0.4739922572464464,-0.0696800132682288,0.6173640490265302,0.15814835400988347,-0.028146826198714198,0.2249015724999543,-0.02623066565016638,0.04411019751820067,-0.36030602740381423,0.7120983420462458,-0.47954986406294625,-0.5131977463702515,0.048618325176349134,0.4214191721529057,0.010407088065342629,-0.4039941483454934,-0.505449348372916,-0.32044030707641946,0.05939645053397219,0.1260218695213004,0.17060712682530144,0.16494278205850138,-0.015389855202296437,-0.2656984032626861,0.3032012146471126,0.18539082634601553,-0.2230341633974698,0.29425674864586315,0.15102142085014653,-0.19593950187867373,0.4099542506923173,-0.37531452937614473,0.49527733087149656,0.04301792271701588,-0.06235156262060308,0.015261095625196952,-0.07503506281665243,0.08422296666493195,-0.0018436764172203302,0.2432097084400094,-0.016841221916073346,0.15842903946309575,-0.057506994089449204,-0.09170225823027084,0.00042960313273719686,0.4492235824157062,0.09850252011131923,0.04207241691723418,0.05712036030827983,-0.32421550039480146,0.05946325278359699,0.04927925783834186,-0.0029039492668844757,-0.3208805607479923,0.0994533584123311,-0.06249841175743259,0.12243241369243307,0.06078396721138457,0.1060794796362079,-0.11160234433455186,-0.06595540527656318,-0.04680972293138859,0.13125006613252382,0.44451805036421566,0.3133597594518129,-0.2768506511283262,-0.026532174191291863,-0.23428929666472859,0.09046034633424332,-0.05248279605092672,-0.07075861092050012,-0.2009327098528441,0.07797633170647014,0.06957129067157854,0.07520370361106278,0.06765901309430189,-0.08184116735361535,1.7194768586747955e-07,2.2308723590658275e-07,4.991826318412329e-07,-1.415432713258724e-07,-1.6029951677154486e-07,-1.1845073744076728e-07,1.493194310420165e-07,-2.2955138721802992e-07,6.207443600803053e-09,1.1340727218422941e-08,2.6620392168386076e-07,-3.024586157640563e-07,-1.6668776320338807e-07,-1.0797697108655413e-07,1.9953683150220058e-10,4.407402565131946e-08,6.170610877820337e-08,-2.0019231289358785e-07,-7.369449606109413e-08,-6.77068961452143e-08,9.503385489662008e-08,6.573196023595962e-08,-7.919009892276563e-09,1.5906382522246076e-07,-6.819981845929135e-08,-1.8102644736006646e-07,-6.95566603203801e-08,8.620171115802933e-08,-5.62537548209896e-08,1.1822123280325059e-09,6.314159167741806e-08,3.394921255228667e-08,3.800705550283112e-08,2.3738190874089682e-07,2.3543667904135646e-08,1.3872873438902644e-07,-1.0583876487897659e-07,3.474373011513876e-10,8.574200111022279e-08,-2.7467461083396927e-09,-1.241636881643693e-07,1.3738539217378332e-07,-3.072983645324712e-08,-4.811263114301578e-08,1.0938399652715702e-07,8.07135731029085e-08,-1.3922805131016958e-08,7.84516517304823e-08,-2.6997739904777163e-08,4.9979194449711883e-08,-4.14563006700952e-08,2.492712980473044e-08,-9.467104022942152e-08,2.0114287180295065e-08,5.323523799560803e-08,-2.1394899490934094e-08,-4.032975815804196e-08,4.6932401631671894e-08,-8.692323377745836e-08,1.0386201898526792e-08,8.915049587443491e-09,1.2350232392321914e-08,4.435163319937985e-09,1.2380330816075258e-08,8.642704163452919e-08,-2.0243395959518296e-08,-1.4605477043072579e-08,-7.878201070676827e-08,5.1246678789418354e-08,2.3262720916239488e-08,2.098289805796405e-10,-5.4887359879352005e-08,8.904223264272204e-08,5.628423727088716e-08,-2.3497361112401194e-08,-3.5883698075445114e-08,1.0690626855991425e-08,2.932252571308247e-08,-3.053507317829496e-08,2.833807952185019e-08,-2.9864629186304725e-08,4.00751782314579e-08,-3.147833316230475e-08,-6.4569923297064236e-09,-1.9506780975231397e-08,-3.685304489353669e-08,2.0724437554964226e-08,1.3219522698726394e-08,6.171637784158079e-09,-2.807183960285009e-08,-3.080882290951159e-08,3.5929579103588516e-08,-7.1464093726048e-08,8.461126355108206e-09,-9.384737043038882e-09,1.1210474631928591e-08,2.9439919169149675e-08,7.699931617310973e-08,9.893647204273215e-08,-1.728565501846191e-08,4.300569958481937e-08,7.467366706925826e-08,8.977510576602121e-08,-2.3760078515788763e-08,-3.055939545859587e-08,-9.745837331598395e-09,-1.0912218684211439e-08,7.642566302035192e-09,-4.768586733816527e-09,-4.2383577480986645e-09,4.7990804219466554e-08,-3.097574769860695e-08,1.3775723006759222e-08,7.888402708822184e-09,9.157861968756009e-11,-6.768195931483589e-08,-1.1262271337741936e-08,-5.561489213601334e-08,6.9471480665384e-08,3.4624515476977535e-09,-3.2063262836445894e-08,-1.6691402121571386e-08,-3.569626301491713e-08,-5.315106511860623e-08,-3.335328410680738e-08,-2.6499020956693986e-08,5.673143532725078e-08,-3.115044333590333e-11,5.3950561684779075e-08,4.912517337363198e-09,2.53642228609241e-08,-6.964505530615561e-08,1.2129506010705171e-08,-1.0650727300109963e-08,-3.3191762949247305e-08,-1.0101619263291894e-09,-3.493256406361667e-08,-5.154737382773167e-08,-2.312099681156532e-08,9.354400537509022e-08,-1.0306738431470341e-08,-3.2194894278303465e-08,-2.8571376903263612e-08,1.940581038917255e-08,-5.9276748759495845e-08,4.5588091246440143e-08,-5.701122074430742e-09,-2.532976423053057e-08,5.8719397885709235e-08,-4.102031694874775e-08,-2.716145938719272e-08,1.5148911486351224e-08,9.155442626251897e-09,6.327970017427909e-08,-2.8067756410732336e-08,4.356613983458324e-08,3.003523812994402e-08,7.23591435866644e-08,-5.064893698891737e-08,2.012403022000342e-09,2.5130087510927268e-08,3.178640627099494e-08,8.529876360796607e-09,-5.684208015388492e-08,-1.5494376032210155e-08,2.8161082576971808e-08,-1.297244348053006e-08,-6.195971569145087e-09,5.869955152504325e-08,3.0776444281954696e-08,-2.7210654562903613e-10,-4.616417248470839e-09,2.1074139544552395e-08,-2.3909208973771356e-08,3.576413570849368e-08,-6.276262536075716e-08,1.0393367277927723e-08,-3.620153684463778e-08,-2.6723184776145104e-08,4.379611479032874e-09,8.785701444136151e-09,1.496795110078608e-08,-1.185855191820906e-08,-5.152797269425413e-08,-5.840284977853827e-09,-2.1543976047588842e-08,2.6115649753855052e-08,-2.786863148585006e-08,3.8524722467681016e-08,3.1743168232845065e-09,-6.287358550460809e-09,-3.6461619667971235e-08,-2.0605826628328217e-08,-6.031442245646446e-08,2.655773151394314e-08,-8.096442610794341e-08,9.868326739104205e-09,4.856676324993536e-09,-1.3188845709999342e-09,-2.0388169041929416e-08,7.018659115010095e-08,-1.6747629671964859e-09,2.7189626813917123e-08,-2.510341584605058e-08,-4.167897061507775e-08,2.8487803782617505e-09,-2.9351420294254638e-08,-4.34114639791261e-08,-4.921740487384696e-09,5.982819212269064e-09,4.3195250189198564e-08,6.58073149722993e-08,-4.419204097105833e-08,6.6547731214505745e-09,-3.0194278188844237e-09,-1.981237396364577e-09,-2.0123851168785123e-08,-3.435510143035003e-08,1.3260436235174033e-08,-9.271408196731556e-09,9.15045424154659e-09,-1.828898206490681e-08,-1.0192693106203521e-08,1.067441076849085e-08,6.260845256123027e-08,-7.106539162693437e-09,-5.412950071503886e-08,-7.540797958283108e-09,1.928220971780803e-08,3.3817210268183295e-08,4.351138227498552e-09,-2.0736650174768556e-08,1.4033757766984678e-09,-1.4362582109739286e-08,-2.128950682411812e-09,1.3638972673479799e-08,-1.1161182644769951e-08,-2.9720505667629737e-08,-1.0676348305427297e-08,-1.771068465494796e-08,3.3720070499732024e-08,-2.51285109942323e-08,2.719192078448618e-08,-3.135897719275249e-08,2.833833667725827e-08,1.7726661027950286e-08,-2.637699336727195e-09,-9.125917355135016e-09,3.803686837722253e-08,-1.5211778670032317e-08,1.5401324549024764e-08,1.229954960102475e-08,4.068218066588525e-08,-4.645373763434435e-08,7.382491368224109e-08,4.42948534518095e-08,-2.4178528984508674e-08,-1.713445646478462e-08,-3.2117100923212405e-09,-4.860509923709788e-08,-4.319115362583226e-08,4.6052023867926284e-08,4.884185197950863e-08,5.325632438865635e-08,1.1108772624002228e-08,4.100978845400505e-08,-1.447183926861495e-08,5.38353304158079e-08,4.1582404186613076e-09,-2.7340380612250748e-08,-3.1592057303519994e-09,2.4548142713021193e-08,-4.105088968753279e-08,-2.052254653717167e-08,-3.568378467710964e-08,-9.744923284982221e-09,-2.4912541057853232e-08,4.7024651339544477e-08,2.463007045538923e-08,-5.575625319081956e-09,7.916701597748821e-08,-9.24727394657765e-09,-3.2171693364890785e-08,-2.498982462628696e-08,-2.4401819259667334e-08,2.8252816058893515e-09,-7.178193059398374e-08,-1.4402640025057423e-08,-9.17532655408948e-09,6.451966266807219e-08,2.3285630722669898e-08,1.4443567453170658e-08,-6.434313656877855e-08,-3.900794642852645e-08,8.449710403590771e-09,1.0789201476679722e-08,-5.056177709850118e-08,2.751194966288395e-08,4.3535302252095676e-08,1.0339866046704671e-08,-3.075656739015553e-08,-1.3345774790840537e-08,2.078619149026295e-08,-7.335644974792999e-08,7.0769879123577795e-09,-1.6568737978839287e-09,-3.992884640979799e-08,-1.4189477814952056e-08,-3.456364097709219e-08,-9.978985832104215e-10,1.8772838478176013e-08,-2.6835996314034105e-08,-2.9804397942700955e-08,-3.805706759452132e-08,-2.2192426979428248e-08,-3.1529922034367885e-08,-4.2422628632188264e-08,1.1045500403206177e-08,2.696549483705013e-09,-4.213666224273105e-08,1.0660927279859678e-08,4.0100602269332875e-08,-3.0969183106854814e-08,3.0955051300018965e-09,-3.5594363873014956e-08,3.8972989557795046e-09,-2.336283282111662e-08,1.8317458834460343e-08,-3.3067197036107387e-09,3.7502800601108e-08,-1.8140081797790586e-08,-2.360393769329505e-09,-7.363517307013012e-08,-3.542306059589606e-08,2.1995490762094505e-08,3.847591245609294e-09,-7.227381179641945e-09,-3.0317756194442325e-08,-5.477414144472448e-08,7.428693216127158e-10,9.025442004872986e-09,2.429344263255029e-08,-7.36696113834423e-08,-5.916612444423208e-08,-1.8801520451638964e-08,-1.971137475464957e-09,4.7527320023998954e-08,1.0878965589489198e-08,-7.452718639444633e-08,-5.5761450401536905e-08,-7.1537434864765714e-09,4.2195903438013715e-09,-1.71482684996338e-08,-7.816305228058873e-09,3.6127757840898056e-08,-2.4798279041338134e-08,-7.844839944315396e-09,-1.669209281907058e-08,2.89146742660229e-08,2.1971029579015422e-08,3.2061894916779465e-08,-1.4159406980240874e-09,-1.6447943923525443e-08,2.3094066103901412e-08,1.3026420192518984e-08,7.403226729568724e-08,5.410428469132533e-08,-2.6898994309743074e-08,2.7319454415711264e-09,-1.63673865294367e-08,-8.034559317859902e-08,-3.20969960887485e-08,8.039774401780164e-10,1.6538821284717287e-08,-3.178113110180458e-08,1.550163014618633e-08,-6.840557092990807e-09,3.5229834799421766e-08,-1.088889134415183e-08,-3.555548053202351e-08,-4.553764684778194e-09,-5.4398190396653945e-09,5.423929774761582e-08,-2.5344281173733663e-08,2.2045821140848076e-09,-3.0524633619355424e-08,3.777548096550731e-08,-2.3652776091898087e-08,6.36440092016688e-08,-5.5904190859878966e-08,-4.94878574230917e-09,1.0553498963616903e-08,4.477866133445474e-09,5.228981092564311e-08,7.886704911364006e-08,3.414326310569038e-08,1.4365015982287233e-09,-1.99598436667614e-08,-8.858011953105649e-08,-1.5296561753364024e-08,-1.5308636802657816e-08,4.684752411649937e-08,-3.658660897853938e-08,1.2063643306525762e-08,-6.057646981250109e-09,-1.343122688762799e-08,-3.032497264410239e-08,-2.6737262459608502e-08,4.0094709066740286e-08,-3.539187742873651e-08,-2.804651827448268e-08,2.1408077310880458e-08,1.8582643229736462e-08,4.458756325265156e-08,-6.958259168854397e-08,7.444234811915251e-09,-3.0930501770942698e-09,6.208244950067776e-08,-2.0036685366431328e-08,1.6102879855928176e-08,-1.5398136529731765e-08,-1.0465715322149904e-08,2.110332933402681e-08,-5.233131251947132e-08,-5.256301350946291e-08,3.3862564557951558e-09,-9.361605823876573e-09,-8.537287710108643e-09,-4.517885882071582e-08,-5.591323543052695e-09,-7.7478169657752e-08,-3.369032455791121e-08,-5.173718328754795e-09,-1.6639069500695713e-08,-3.0381009930025016e-09,-1.600290039371899e-11,-2.4600817799536046e-08,-9.350298438293159e-09,8.486436386956342e-09,2.8433467136323998e-08,-4.747234727542349e-08,-2.1301868491363507e-08,2.9728139533391484e-09,-1.468931662418349e-08,-1.699380514086357e-08,-5.833807738969687e-09,-2.2953603406872247e-08,-6.10004519535634e-08,-4.503840234093559e-08,4.279816290253535e-08,8.041760685140176e-08,3.6155707511253965e-08,-1.5455814642018062e-08,-1.3389420128184781e-10,2.663734210983648e-08,-2.7735245600180036e-08,4.039446302450678e-08,1.3062033898947334e-08,4.8413768521937683e-08,-7.050140665709748e-09,-3.665694670029751e-08,2.9197217504828288e-08,3.85055678592261e-08,2.489017877915778e-08,-9.281381885273277e-08,-4.561999669694394e-08,-5.002091946204601e-08,7.93519361746986e-08,-1.2135725119266638e-08,4.19001017493148e-08,-1.8440714111972456e-08,4.499975736482753e-08,-3.8289473119901274e-08,3.85546174430651e-08,2.8438782065376422e-08,-3.1321334387213184e-08,-2.3869548976263033e-08,4.7767898650463714e-08,-1.562539750366021e-08,3.951521959644211e-08,2.39075473029704e-08,1.5629852967435909e-09,1.8596052392405582e-08,2.7302647837013083e-08,2.2475257127618775e-08,5.573186388774243e-08,-1.0520278315162557e-08,8.344182483854823e-09,-5.1647653070974187e-08,-1.4198924536135138e-08,-3.7064460535474186e-08,2.0346817508620774e-08,5.305398942390127e-08,-1.761092016661081e-08,3.168107740036952e-08,4.052831262257861e-08,-2.7948014347245476e-08,-3.149760618992303e-08,-1.773294262819025e-08,-7.07084117645973e-08,6.145090716835888e-08,-5.440654907151732e-08,-2.752708258557668e-08,5.549843778984709e-10,1.717667214018448e-08,3.2797840276987955e-08,-7.669030049894943e-09,-1.6912272415847696e-09,-3.406805205996566e-08,3.48476910105866e-08,-4.116116728014596e-08,1.964532003739805e-08,3.6159741090280306e-08,5.79624709340365e-09,6.051840466259062e-08,1.0973623246202102e-08,-2.790364606042317e-10,-8.666519664413119e-08,-8.086551615132942e-08,2.247748956407669e-08,-3.7367132499355193e-08,-7.735992568758121e-09,2.304800100771942e-09,-9.317111276940793e-09,-4.34340291510793e-08,3.532871178935082e-08,-3.353067824785061e-08,2.2886323947091114e-09,-4.0926414077158135e-08,1.3638912749192045e-08,3.0366011427584993e-08,-9.855813332820818e-08,-1.0336885514217187e-08,3.0246556703694694e-08,4.7371937456075486e-08,-7.407398139314125e-09,-5.667450619917247e-09,4.299201880608727e-08,5.4566877655259916e-08,-6.53076464018909e-08,1.0712587997230294e-08,1.7536060936684805e-08,6.958194714856702e-10,-5.0061960008007667e-08,-5.208713044213553e-09,9.768034409107784e-09,6.60896396498245e-08,6.264885202278414e-08,2.1419823970081353e-08,-1.1089275164799517e-08,-5.3165282176692585e-09,-1.9013198820916344e-08,-1.815860020681903e-08,9.160057040658032e-08,1.228612822590236e-08,1.3601721082778795e-08,1.7325262890999227e-08,6.118815389088983e-08,3.575205687056382e-08,3.129264153356459e-08,-4.1895947211489926e-08,-3.165952716654985e-08,1.500457941228106e-08,-1.4676137249924892e-09,-9.192400729496342e-10,1.1295029939129009e-08,1.1142657907470266e-09,-9.10198194592482e-10,-1.513752123649681e-08,8.200035667149663e-08,9.6241905556127e-09,1.5908506290074342e-08,6.131640864492915e-08,1.0185520295247219e-08,1.8724434613925922e-08,3.9857253136821313e-08,-4.568769501611669e-09,-2.9813645802123645e-08,3.5821761112941886e-09,7.817733502224478e-09,-9.622040775258967e-09,5.343302397764482e-09,-1.0478677128777925e-07,-3.5540805465306136e-08,1.1017186403450285e-07,9.971525813390336e-09,6.414208378324737e-08,3.817103189085458e-09,-5.159184882086443e-08,1.3579245949912888e-08,3.799702219531298e-10,-1.874206451146776e-08,2.2713941838503615e-08,2.5427918146081474e-08,2.443056337786409e-08,-1.1965390539492304e-08,3.8932359391896654e-08,-1.1515226006758583e-07,-3.1861294491619674e-08,1.014877515359558e-08,5.54951674613946e-08,-2.2362533241837568e-08,2.6588887758194346e-08,4.0100704368217777e-08,-6.06341093167817e-08,7.934278389853944e-08,4.5334237586125425e-08,2.857987513316118e-08,-4.257390626150048e-08,-3.2792116688717954e-08,-7.07975749691947e-08,4.431585686956452e-08,-8.550427738063249e-08,9.456301429400238e-08,-7.108546182243991e-09,-6.616733971842592e-08,-7.4282064110864354e-09,2.320576802938845e-08,-5.9122012618928466e-08,3.1417402013289575e-08,7.794858064569254e-09,-2.9633853843025193e-08,-1.0017328951061888e-07,2.787470282372695e-08,7.194431785040312e-08,6.24465847920419e-08,2.7665592219894286e-08,4.0379976529170136e-08,-5.348500919932775e-09,-2.4046975827252126e-08,-1.7969320642574615e-08,1.3504409132614192e-08,-5.967411294272029e-08,2.190879526409173e-08,-6.468347579779987e-08,-3.945386486958746e-08,-2.9800688389203245e-08,5.0235146348276416e-08,8.605412025672332e-08,-1.2113765553156686e-08,-1.7817330388858466e-09,-8.639952879530011e-08,8.972813063390372e-08,-4.933757047353993e-08,2.9429640398259682e-08,-3.13022003456398e-08,7.352321901299419e-08,1.6825750459581457e-08,1.1752085748995e-08,-3.780571716793801e-09,-5.144841613846651e-08,9.50228367102568e-08,-9.138030066316305e-08,5.371880702417786e-08,-4.031175326879577e-08,-3.232097106620202e-08,-7.611343846858354e-08,-2.8846097732682097e-09,-1.770149432589463e-08,4.7851341777871426e-08,1.5151069510110915e-08,4.991160151845975e-09,-1.543482951171793e-08,-6.397302837468644e-08,2.3455914474612705e-08,9.543879686546575e-09,2.758698769422807e-08,7.961607850770491e-08,-4.5446003460458684e-08,2.5262381103674514e-08,2.984361449631656e-08,-4.475461001796077e-09,-6.049058964840981e-08,-7.758696299320356e-08,-5.7311019707739774e-08,-3.121811381623374e-08,8.079446195408124e-09,-6.990793208205837e-08,3.2629504431724854e-08,5.0944725327184415e-08,9.60073312517018e-08,1.020449092586917e-07,-1.0175198933426444e-07,-6.073872552136983e-08,1.0151235169120199e-07,-1.3512693866624126e-08,-9.407120898918819e-08,-8.281891494821281e-08,4.733513359056474e-08,3.286924199485952e-08,9.689956781411269e-08,-5.2157046459555545e-09,4.330513458938867e-08,5.902236477339784e-10,-9.2959998920783e-08,5.4596535375983635e-08,1.5492763699720413e-07,-1.6948665723659495e-07,-1.2385813863424744e-07,5.224235377632169e-08,-2.983094937736297e-09,4.830164536395731e-08,-4.899897165788758e-08,1.3053202202462089e-07,-1.609858834294986e-07,-1.0488920387796696e-07,6.675680963574848e-08,-3.1307469833263823e-07,2.4075210824925364e-08,-2.631481721415696e-07,-2.457303724945348e-07,9.942486389746819e-08,1.3157337253044687e-07,2.822376232725077e-07,-4.536887210360163e-08,1.8278470026444893e-07,1.621416794161945e-07,-5.685469866012482e-07,-1.1525261855993563e-07,0.0
14.840161002935819,0.9611970729801489,-19.671429724647915,7.194290545405709,-2.882522320112145,-0.3368075181063308,-1.7276760049082895,1.9852275651250317,-1.4168682633389251,0.14804062667356366,-0.796203095657884,-0.06760660950735875,0.8399549347735518,-3.686417258217226,-3.7431197134096506,-1.4872797313069848,-0.09411807512586629,0.7552982499873508,-0.7093108299499724,2.016020664691177,1.7848376805774169,0.4683891096865854,1.616743348881541,1.287154106322384,-1.069499531720564,-1.0496089780741111,0.7433832489572585,1.6203027286114688,-0.8632047614622813,-0.6427345124551296,-0.6088660065334404,0.924204257764843,0.8265430546071095,-0.16573272427207764,1.1918844262007058,-0.5980861476316234,-0.7436566102126518,-1.3283193248277978,0.9520387568456783,0.6321659970469113,0.372076990740956,0.3213191293533302,-1.904912998337655,0.17530725839708167,-0.6414584544843079,-0.5218810898801793,-0.20914314779168597,0.14026474887953905,1.63938653429687,-1.0260833189049945,-0.32480975395794176,0.0969767973153356,-1.2083539393888316,-0.09532011215237918,0.4406710868432065,0.2136786554627883,-0.2654560150025752,-0.23663039303622857,0.03550120044338073,0.011666734622830133,0.463041206515282,-0.5797239865226761,-0.427354871240905,0.16049206686643364,-1.0691846100887101,0.04237985851548742,-1.0259745934612938,-1.3976259720828572,0.12787794739589242,-0.45191824113689627,0.6086539446814261,-0.3076580913664508,-0.07907208812488725,-0.5572870837605046,-0.5848420443964315,-0.3339778904481714,-0.18169682264081022,0.019917064640075727,0.6426620783766648,0.11377012853074533,-0.04984776319937256,0.3140637744845698,0.11009026858213872,0.58914418305636,0.4785932877440763,0.2105148207230545,0.06848984804355046,-0.23158244418304635,0.512403360994488,0.08573388597765973,0.4668357872139718,0.4654070978658954,-0.5978734595588552,0.3968250649595725,0.36668625700860835,-0.7251747113430527,0.3970931126718024,0.25162805540439603,0.30053694932828995,-0.29991101393101177,0.36868412412748647,0.20919790513442016,-0.18785507857705747,-0.20857749381073531,0.2911943826625224,-0.6957893435146161,0.36180158037638044,-0.7303459806825237,-0.03059548468577608,0.18380857800159825,-0.21386495761357371,-0.22863906607936427,-0.0006418073109110412,-0.1384705155029915,0.7373267826667718,-0.13440710277851814,0.7368124273910379,-0.31088884869310085,0.8432961362003741,-0.3481765815202547,0.06900819640733052,-0.2418734659710038,0.06114917757419913,0.5810447028050352,-0.28924203134826243,-0.2056941404236207,-0.13856579463324095,-0.19786719643930709,0.6193635310636239,-0.11436536654825674,0.10747628690994354,-0.3066118523984441,-0.055084226371645006,-0.20068474751416904,0.422596997479691,0.06788671788185219,0.04292528224072156,0.7526592588971024,-0.16077135750368193,0.0418279457994203,-0.14640983506494154,-0.10761206396879669,0.3535408545086105,-0.4808356270920232,0.32489604038997594,0.005889091740339941,0.21910988779307214,-0.21466973297526615,0.24498374248283017,0.2723113819073684,0.02097158147470668,-0.09957750581059407,-0.2628717973198996,0.02423716985970021,-0.024822475178047365,-0.36087955504690616,0.18942999534220495,-0.11532552871900995,-0.1390745822651227,0.04450606758282735,-0.10732217788963766,0.02976914769710154,-0.043462037855950486,-0.04199375541049544,-0.29485460495722304,-0.0301667074294798,0.14081375799668977,-0.20158977259556365,-0.12760541277196175,-0.11036240658069016,0.2596303695210268,-0.03185473451013482,0.0790010645615376,-0.4297367012421417,-0.10359170451293759,-0.04743052048616647,-0.2739648014507158,0.01105705969357794,0.19219933266326505,-0.31973141012257295,0.0026810572715914027,0.015226923258019387,-0.12439977105299374,0.11399157644651298,-0.2568789412771765,0.14287504384223237,0.14276963288944677,-0.07174251677608934,-0.11343916247621366,0.12818974459677987,0.40403452926171124,0.07271809151745906,-0.09082413757529528,1.7082471659435328e-07,1.029996002710476e-06,-1.8129096612806705e-07,1.311512751733801e-07,-3.454976447159197e-07,1.1990350601287503e-07,-5.574615375980585e-07,7.086467335160052e-07,2.6756436311003995e-07,2.4369821360892274e-07,-6.57855511509986e-07,-2.248073585064958e-07,-2.5354481347772406e-08,-1.587184359497229e-07,3.2510399239349397e-07,2.591132308715771e-09,-4.7990241114348464e-08,-1.2966450180229572e-07,1.3820632860372939e-08,-1.023766411645255e-07,-2.5396050595816178e-08,-2.4623797001410708e-08,-1.3976725554698533e-08,-5.1235876291633176e-08,1.4840680834238285e-07,-1.2640150393039562e-07,-1.390013608659757e-07,5.1528220135210745e-08,-1.5028302793179682e-08,-5.778254241750602e-08,1.2778522018308536e-07,1.5825468763219774e-07,7.053756473363038e-08,-6.112680246694868e-08,1.9302408948984606e-08,1.8315495786680458e-09,-5.5647440738715304e-08,-1.0246036807881609e-07,4.789652169323588e-08,-2.4317643482207885e-08,1.669155264005795e-08,7.127144130425478e-08,-8.230545311960213e-08,-5.7066385894533056e-08,5.753054349577624e-08,1.054420466772843e-07,9.048469085115585e-09,3.303254592079696e-08,-3.0949427144363884e-08,1.2627470979964528e-07,1.1127480392669753e-07,-1.2698009727030168e-08,7.965260162556831e-08,5.6156335137558244e-09,-5.9604358892961784e-08,4.397595027016976e-08,-7.72219584388445e-08,3.698455139367063e-08,-1.5119144959607755e-07,7.432661042194866e-09,1.080718431134553e-07,-9.314035592788983e-08,6.103383354272296e-10,6.006653494039504e-08,1.2008438243782393e-08,-6.434903346286269e-08,8.933085132722951e-09,-1.4359710764910716e-07,-1.4302607431737613e-08,-4.9286505432455385e-08,-6.541086033928778e-08,-3.238191959020753e-08,1.5910669824703572e-07,4.0191993247451485e-08,-1.3687540295626022e-08,6.19724354056217e-08,1.7087200543386416e-09,-5.010208581346376e-08,-3.994103214832734e-09,1.2707480789853065e-08,-2.6901058658435062e-08,1.0168195366255794e-07,6.922062406600205e-08,4.050459689874941e-10,1.875986860300216e-08,-1.9090813263566986e-08,4.188621785528035e-08,-3.8229750809470886e-08,-4.157222377454417e-08,-6.35440315643887e-08,-1.9360397257583983e-08,7.635216070500661e-09,4.169749212579177e-09,5.4185925316141414e-08,-1.2202050425624833e-08,-5.3918390197083e-08,-3.698676048768945e-08,6.493434671905884e-08,7.243013022684153e-08,-2.667433873781988e-08,-1.2784743541605081e-08,6.033914534686602e-08,2.1535703803587936e-08,-6.903215366005355e-08,-5.549228465628886e-08,-6.970505950221195e-09,-3.293802550152769e-08,-2.201552920522154e-08,-1.098945526245565e-08,3.963911171522838e-08,1.9227434477908645e-08,-2.923234937446395e-08,3.5228568062706245e-08,7.814527284294437e-08,4.723891305902228e-08,-1.407825844790267e-08,-4.447419921227436e-08,-9.12474806824548e-09,-3.7136897640399624e-08,2.120204745104104e-08,2.8074346181128362e-09,1.0163842893012864e-07,-7.46921203775841e-08,-1.8527948286717333e-08,-2.7753390363649544e-08,9.073856013092074e-08,2.903253937258654e-08,6.150490328149516e-08,2.0730455130291148e-09,6.307379041281536e-08,-2.8142946445486317e-08,-1.778778020711247e-08,3.9199877510665004e-08,3.356503419649215e-08,1.62048136576054e-08,1.005321186298147e-07,-8.020153169363553e-08,-9.543635814956986e-08,-6.960048676285524e-09,7.202193227917597e-08,-8.411439459538039e-08,5.199724981141962e-08,-1.628005191767201e-08,4.5941254203651916e-08,5.292400795386953e-09,-2.1833511859581378e-08,-6.260756282849833e-08,-1.7366911797545015e-09,-2.8814306607394258e-08,-4.273492720807681e-08,6.937429469777712e-08,-6.134944052771374e-09,1.98864667788623e-08,3.902320255821934e-08,8.42421776781066e-09,-3.2372843919437067e-08,3.24464945189451e-08,7.135544299874397e-08,3.229985520714074e-08,-8.173524997101556e-08,1.7136604191225757e-08,1.9300460785132145e-08,-1.8378615601610804e-08,-1.690470696757984e-08,-3.314094809692136e-08,6.192575419117219e-08,-4.908957088045618e-09,3.648337565387294e-08,7.324332795821675e-08,2.9375543386667147e-08,-9.084899943445635e-09,-2.75372874503077e-09,-7.161126117094518e-08,4.0031219450398225e-09,8.613296040294038e-08,3.063076514653318e-09,2.6909050682144553e-08,-2.9612647056698194e-08,-2.651294911393265e-08,2.454886466329853e-08,5.419591225797049e-08,8.778598428738071e-08,-1.8962218961693367e-08,-7.68491764668866e-09,-2.7007837695436354e-08,-2.9293434289368037e-08,-4.059556410473952e-08,-6.160920783260249e-08,4.450894586227605e-08,5.1326722400046876e-08,-3.149327035267824e-08,4.7343336570526695e-08,-6.131130377701188e-08,-9.387811597538764e-08,2.453031780480508e-08,-3.9218476216573706e-08,3.190396180574595e-08,-2.994028303060503e-09,5.711379613693168e-08,2.697323675526775e-08,-2.7282115566684695e-08,-3.952623667258237e-08,1.1321425352761594e-08,4.646352141923771e-08,-3.957102746171559e-08,1.1692847454169986e-08,-3.185426181162576e-08,-1.4191998465307165e-08,3.14801693324096e-08,1.0145540879635817e-08,3.9349465436044895e-08,6.74121871657718e-08,-7.812981719923506e-10,3.505982365537008e-08,-2.9997171357987185e-08,-4.082646470893181e-08,-4.557732904975076e-08,1.7281148734227259e-09,-7.214036035207982e-10,-2.070496703254765e-08,2.703654011781964e-08,-6.709241748281691e-08,-3.9128866535786955e-08,-4.103512971087575e-08,2.1386051096694558e-08,3.953226590525105e-08,-8.869671838662718e-08,4.878156001364431e-08,-3.878712978577781e-08,-3.8458797604890016e-08,-3.98653135780247e-08,2.5580965734572914e-08,-2.0546695178591534e-09,-6.662594614903483e-09,4.324264335497929e-09,3.288917799215696e-08,2.6117737805808616e-08,-5.989284035390341e-08,6.43510935788294e-08,2.69435246613714e-08,2.6061290181456087e-08,-1.9080461877152288e-08,1.8241787302919477e-08,-3.2042414555011334e-10,-5.001340885879557e-08,3.2252314562108975e-08,-1.220663567447211e-08,2.682985708601926e-08,-1.3669713971875552e-09,-5.436256583779553e-10,-1.1034194585812784e-08,1.2633370891079743e-08,1.0821875368050016e-08,-4.743408116292258e-08,1.0029872432593123e-08,6.0020269032623474e-09,-1.1864191240551492e-08,-1.9162743697398454e-08,2.9752715430264587e-08,1.0223372298029387e-08,-1.113635750282782e-08,1.845525049448682e-08,1.0696396435250222e-08,3.2944693334480135e-08,1.048646455781288e-08,3.159725106560707e-08,-5.644596604015284e-08,-6.85298016112057e-08,1.401106841658617e-08,-3.4244453911425055e-08,1.970227246628209e-08,-6.4977108971131514e-09,-9.137889600552285e-08,2.265178655758149e-09,-3.1286816748465895e-09,5.311037018507214e-08,1.9628642891622583e-08,5.185825413533962e-08,-3.9332708035022534e-08,-3.871474385519491e-08,3.7881934256134286e-08,-1.142213768012823e-08,-9.254565808136661e-09,-7.93562246470536e-09,-5.990020768287252e-08,-6.809112546024565e-08,-3.6046637466591314e-08,-1.4053736722974275e-08,2.8389003509099453e-09,3.470297055274685e-08,5.5493399500616825e-08,3.0692003938348478e-09,-4.932113187305909e-08,-1.604656696407858e-08,-9.686970947608842e-09,-1.6127827462408817e-08,-4.34540354254942e-08,6.976870442487737e-09,4.217178423138179e-08,2.5076096699105932e-08,2.7910718736201545e-09,-2.151338274192227e-09,2.4533694104045267e-08,-4.9818885128338763e-08,3.044917150363258e-08,-1.1351932005521093e-08,-1.937768304149934e-08,-2.7824227033512727e-08,-7.138456745159338e-08,-4.278749299313489e-10,3.8796467011215086e-08,-1.789343118119291e-09,-5.565861994211163e-08,2.0474670917036697e-08,-5.8055898144449e-09,-5.494569827943496e-08,-1.1540279981625545e-08,2.468134713273784e-08,1.2567881069180942e-08,-2.8200222112334528e-08,3.17792907544856e-08,-9.833929309754907e-09,5.907981236175086e-09,2.4230009304515576e-08,-5.2086580742960464e-08,-8.145704000206422e-09,2.069290463979634e-08,1.1144421441233732e-08,3.3928083842393875e-08,3.415060592648622e-08,-1.4335294618028627e-09,3.980985315704677e-08,2.287136724454797e-08,-4.7945825698558764e-08,-1.877527311400229e-08,9.645822002246618e-09,-2.9161173698000198e-08,-8.943715767983917e-10,-3.90810671602182e-08,3.15947784046422e-08,3.659657521470905e-09,3.620064414899815e-09,-5.581243994745577e-08,-2.969928112120379e-08,-3.351858968159149e-08,4.1235364456326806e-08,1.1161885772603686e-07,-5.564411653669055e-09,-3.276269745083882e-09,-2.8100451743284793e-08,-1.7770570015507303e-09,7.451239625311246e-09,3.7954870246714734e-08,-1.883741002073336e-08,-6.594500223666699e-10,3.8336845864517244e-08,8.837233167469094e-10,7.235475552036519e-10,3.016054267446222e-08,5.272736913752851e-09,2.186445974272644e-08,6.360828005980146e-08,2.9751959812474027e-08,-7.2018040975230235e-09,2.3286936337574282e-08,-6.946539787833217e-09,4.688786958695346e-08,3.622832817073984e-08,2.4390012620667534e-08,2.235324148003315e-09,-4.4350972672191347e-08,-4.6225198835347925e-08,3.4352880651233875e-08,4.2801059252361995e-08,-5.6407000320612966e-08,1.609280267378388e-08,-8.458174355352455e-09,2.3437352281163726e-08,1.1047791181884037e-08,-2.643745755301352e-08,-1.3546746446824187e-08,-8.675416995895802e-09,5.871591901573936e-08,-2.708680316154677e-08,-9.110893012254095e-09,-7.199333471041847e-08,4.773903317101258e-08,-5.0412446037095826e-08,1.1431153523755455e-08,-2.3682635741373304e-08,2.23057045750652e-08,3.9536581508681223e-08,6.02018519479941e-08,6.056613710558878e-09,6.613962061363665e-08,1.5694466781734917e-08,-1.3090412531724382e-08,-1.888036313402175e-08,-1.211617056129377e-07,-1.9007523055503128e-08,-2.1811370515267825e-08,2.006719820868419e-08,2.028288167976733e-08,7.681361408051757e-09,-1.4192220121334032e-08,-1.2354923695223619e-08,-8.861887107469713e-08,3.386076508071767e-08,3.6714174145302536e-08,-5.055693030886488e-09,-2.9951224639335194e-08,3.2888817523557545e-08,2.3924179082257524e-08,3.340106059790404e-08,-4.5643008921014694e-08,9.008537159294061e-09,-1.1650101605642504e-08,7.974635532481678e-08,3.5312044371904605e-08,6.52389592348257e-09,-6.385402270825402e-08,-3.555751715289546e-08,1.231805646373374e-08,-3.666608822117112e-08,-4.1435237962961224e-08,-1.9629300629375734e-08,-1.8797176933038617e-08,4.175365349995408e-08,-1.6743771924510042e-09,-3.332064735239726e-09,-7.102948296200395e-08,9.955680030371283e-09,-4.77515373076276e-08,-4.2984876769125435e-09,-3.538721499163344e-08,1.3931791498222879e-08,5.05148490814733e-08,-2.7220738246791498e-08,-2.1980706865765143e-08,7.197093433719548e-08,-2.0227462482758085e-08,8.85415696316727e-09,-8.556366920542402e-09,-2.4847279928019717e-08,2.5543932441474126e-08,-1.4868222361630323e-08,-3.2344708092435503e-09,-1.7473717084381946e-08,-5.089912880062997e-09,3.9174568949862376e-08,9.359435010347639e-08,-8.221761493842905e-09,7.129088222534996e-08,1.3818601263260177e-09,2.7101369370896577e-08,-4.4427204803909603e-08,2.336610882558432e-08,8.895417273613315e-08,-4.777840040270931e-09,2.3172191998543923e-08,-2.3086132991401165e-08,7.042664240675123e-08,5.885348733358775e-08,-4.720676641256638e-09,-5.6824780041153655e-08,-1.930931115001755e-08,-1.6752607634451522e-10,5.442326898863481e-08,2.7821773523895033e-08,4.338752140897739e-08,-2.80927368867534e-08,5.234964980255219e-08,-1.0757743917899631e-08,-1.3159237588489248e-08,9.919531307467366e-09,-2.2677561994921547e-08,-6.854005529799423e-09,3.12457875129013e-08,2.342854465986477e-08,1.3239969107181615e-08,7.66053963839608e-09,1.1848667720582018e-08,2.2780879405104315e-09,4.955141089113546e-10,-6.410762365405276e-09,2.6791674656578834e-08,-3.327116637752425e-08,2.3666868048666245e-09,-4.055749236453465e-08,3.10326424141083e-08,-1.550291392482528e-08,-3.732389736166297e-08,1.8671595242159e-08,1.8581979621679068e-08,-4.2670000643951767e-08,8.12721798193472e-09,-5.798093583031516e-08,-1.2072910407501247e-08,-6.6213660138148e-08,6.741045932567857e-08,-1.1965235441335764e-08,1.3772191165273284e-08,-2.202519111538237e-08,1.7189765839920046e-08,-1.5399524710968393e-09,5.715482451207343e-08,-2.5379130130787075e-08,-8.468910378534034e-09,2.864054937656846e-09,3.605644716131451e-08,-2.2041653703619435e-08,-1.0605110567496467e-08,5.7339051021121357e-08,4.577443035724826e-09,3.385078316264778e-08,3.7345257955512245e-08,3.3088008499770893e-08,-1.2921949232858054e-08,-5.013668841202801e-08,-3.512830772101072e-08,-5.0533420226095416e-09,4.498494299287614e-09,7.64729278512899e-09,-1.1567342167451145e-08,-7.138958185715083e-08,3.099106837822774e-08,-6.454202272632159e-08,3.203525070216706e-08,-6.517289952157057e-08,-1.5917844053275898e-08,8.832110889867018e-08,8.750108970723147e-09,5.382823076161003e-09,-1.000314142629577e-08,5.925388840699597e-08,9.041635565254502e-09,-5.0801828743729516e-08,2.0256937072193892e-08,5.578277428863743e-08,-3.132697389690575e-08,-2.0652428212031282e-08,-9.916726689818134e-09,-6.993857337711518e-08,-3.2112052100741195e-08,-2.481945685084419e-08,9.456668226270892e-08,2.6700738509077837e-08,2.8301584881207376e-08,-5.53691233973197e-08,-1.6679837511190954e-08,-2.0699420733016893e-08,-1.7431391080569014e-08,7.870232909823471e-09,5.5669138826486275e-08,-5.6385322411145467e-08,-1.98432923981251e-08,-3.1186661600401955e-08,2.3711353158706316e-08,5.097386016061911e-08,4.183876560481803e-08,-7.699259468862962e-08,-3.221272137921005e-08,5.145946724294248e-08,7.922341477284434e-09,1.9860946623428966e-08,3.366431849949336e-08,-4.464527041114774e-08,4.512582463256365e-08,-1.3610727433999159e-08,4.062574943120012e-08,-7.570461746375656e-08,-2.0606542749934675e-08,-3.562416975300131e-08,-3.5409288069374045e-08,-2.556086448057826e-08,1.965329871067567e-08,-5.447745671238735e-08,-4.7041361778132895e-09,-2.7524312662396966e-08,-2.2346700823128174e-08,-8.513388680131406e-08,6.857020506956246e-10,-1.0937979688652177e-09,-4.6929661240424636e-08,2.5340186032840606e-08,8.088210184942213e-09,6.4099334395884e-08,-5.1867834610641594e-08,5.7914389464674976e-09,-5.297273663468216e-08,-6.154962634008498e-08,-8.365919934583133e-08,-7.706148513753064e-08,-5.633219235523512e-08,8.944079432637864e-08,-1.0006520417826792e-08,-8.189763311960974e-10,-6.915778444360754e-08,1.831414020436739e-09,3.475513041251155e-08,3.4939689697033316e-08,-3.2742105554595113e-08,4.3013271562586386e-08,1.0520817073089717e-07,-2.5324887242827998e-08,2.969974624567051e-08,4.093175920427683e-08,-4.60333139384872e-08,-2.7824240730889294e-08,-4.003038378552759e-08,2.4679732257837372e-08,6.0978322502514e-08,-4.522945268314871e-08,-1.3834211096130922e-08,-3.750700927618311e-08,2.5804200998180704e-08,-3.945799487148349e-08,1.4241363144318342e-08,-1.1061724652927651e-07,3.393126252193568e-08,-2.5766200340004985e-08,2.3913336356234938e-08,-1.1012809664201484e-08,3.596117692516998e-08,3.242670545966497e-08,2.7119768264416422e-08,-2.381939175066794e-08,-3.609380505587012e-08,8.041845245276846e-09,5.910798092645386e-08,-7.847277544437148e-08,2.4409788579315972e-08,-5.605222086479955e-08,2.848404395683346e-08,-4.677767367899932e-09,-5.3271609706806444e-08,1.386168679839983e-08,-1.1741617744753796e-07,-9.047474597290162e-08,5.380332501747631e-08,1.0035789487633506e-07,3.2408153327612155e-08,8.693534059300845e-09,-4.016984868349116e-08,-1.4874083686944317e-08,-1.5673770309421187e-08,-3.200024678573499e-08,-1.4235243095406247e-08,-6.039813299496544e-08,-6.944346025994363e-08,-1.3389750360900954e-07,1.0453192736403771e-07,-1.4172626849884296e-08,-3.940198667340411e-08,7.1756030006753235e-09,1.8278276170402563e-08,-2.621195460683623e-08,4.0559680891671945e-08,-3.216346322609809e-08,-1.2310782337293658e-07,-2.5853251664487154e-08,1.967438451044856e-08,6.6090188322043275e-09,3.736350717709058e-08,6.008703201665355e-08,6.002767727331104e-08,-4.850253165766816e-08,-2.602567050757898e-09,-3.8010128600163284e-08,-8.090079861577948e-08,-4.625569410832142e-08,2.7691156034848063e-09,-1.2892651521378973e-07,-4.679556286912856e-08,5.914115339122894e-08,4.439499767805444e-08,8.880400503841201e-08,-7.650796773894797e-09,-4.4806758719984074e-08,9.741708745236721e-08,-6.271993421846922e-08,-2.3427447981561045e-08,-9.80764715552418e-08,-4.943553605363249e-08,2.9417290797750795e-08,-1.158202394685448e-07,-2.9875075191476697e-08,-5.508089750971834e-08,-2.3237556323607578e-10,-2.0990332116888055e-07,6.189281698265603e-08,-2.505424795407052e-08,-4.6078846155372943e-08,1.3073449434131135e-07,1.1800042604148686e-07,-1.1054824389233886e-07,7.044713412618364e-08,-8.7021766126405e-08,1.8228483722459998e-09,8.086499359016841e-09,2.4087331576549964e-07,7.768962562160198e-08,-2.6754521015304178e-08,3.566549922062734e-08,-8.452305522155257e-08,-2.7836638294420624e-07,3.759958747684422e-07,5.917919709830244e-08,8.461316625130166e-08,2.5940205616858947e-07,-3.1480114248694235e-07,1.6801473812222412e-07,-1.6971814176258704e-08,-1.5333793657035244e-07,2.481612941807043e-07,1.3282929178792813e-07,-2.1163504948518153e-07,3.6620488597094436e-07,9.125195590264923e-07,1.0
5.05425264456088,-6.695210068352349,-14.871469079263992,-1.671485922602526,-3.544140243292487,0.49217456487950656,0.8440533045311832,3.676547152717188,-0.7010546480623185,-1.4248391762752293,0.8911679458391266,0.06587381932656813,0.34000973537999785,-1.6819317942450074,-1.1151904644723223,2.634438009102083,2.4708879833540327,0.27416745822478394,0.26367522519238296,1.5220281137616323,-2.190272074737527,-0.2931840965420731,1.3038827430550248,1.3889580096227832,-0.06057315923983578,-1.9724320056269091,-0.3341400972846155,-0.03662981364306739,0.6582447859548773,0.9738132125123535,-1.7645118205380508,-0.9358172843526457,0.9931539247442881,1.39432899175272,0.9433471028999069,0.1826083656594709,0.5968976813514768,-2.1551420837547663,-1.0662560282796825,-0.5866917334214958,0.33517664279673065,0.042496838353999644,-0.402567981033588,-0.1950238703257789,-0.2874900406137049,0.19168715938834419,-0.8773724141121386,0.8689415008073906,-0.07337138734943649,0.9349078983227377,0.4828167374910416,0.4068835414063673,-0.7943796476501801,-0.2609938938447847,-0.04580330211057709,0.5014708771447165,-0.7927618576820227,0.21858165746267944,1.1597872757330023,0.1934809043175214,-0.015777638241153774,-0.4302572020522811,0.8332246929603332,0.10857237594019986,0.8967842149690328,-0.7281915944339805,0.033491009283411824,-0.2941533699249128,-0.8701419192833051,1.6754887630726514,-1.9279169825503324,-1.2800219614570674,0.14331578063872508,0.7238325157752283,1.0868470671508261,-0.8327204807972866,0.3674159937181355,-0.2817950081026164,-0.09402203239400028,0.19767652355931692,-0.49301038428494864,-0.4986275227746214,-0.5410497226085007,-0.3467898290374598,0.40884055107677747,0.5423363105670004,-1.011837840918738,-0.38035999319068464,0.23546875982356316,0.19763757506269397,0.26493567008626717,0.11541938177050512,0.2995853625943972,-0.2808487649180844,-0.04204099684114945,0.48202253554846,0.5072513267270484,-0.43030228473536525,-0.5005397257386082,0.01850754243681904,0.4172366093530884,0.1364804556078864,0.08177492725924979,0.21715200468304446,0.14652608421854532,-0.5410965504659424,-0.32873205094413793,0.1185874814309566,-0.5308477834675591,0.6811622858672564,0.3881183736471856,-0.2866116999990135,0.19890648097807173,-0.1721979556682192,0.033649210306743726,-0.15688801224435742,-0.3761919800677469,0.667165199369464,-0.0089458561037839,-0.2214966547952677,0.3102508107220231,0.2521861026466853,0.21117425878784332,-0.2541911258221715,0.04736357394707305,-0.31381106742837306,-0.28265044252264593,0.021344042325050536,-0.16947797295354775,0.28169845607610056,-0.4795891143759435,-0.33108313633888287,-0.013770934339204913,0.27326204420606814,0.3462921185121606,-0.39522621484045584,0.02647535068145407,0.1137421159341876,0.1974813134772075,-0.09964732322131382,-0.48711482743725715,0.3091806682284475,-0.02550631383987645,-0.22434242820768813,0.004351664158821517,-0.27775747415182683,-0.2881641895796745,0.007857222075470405,0.18777214849297108,-0.15589514431200546,-0.14310520841402788,-0.08312263425932104,-0.10997183010539151,0.13204256482308818,-0.5179615576882615,0.48452124100551053,0.08488684057633344,0.4764638859827464,-0.2964337625867731,0.12173979556208298,-0.31849317240507213,0.2775963693835952,-0.4157064665031249,0.2168632968136382,-0.407063591822984,-0.1515663918968817,-0.019092284477623442,-0.09179069310906507,0.30215699207991265,0.13073048116166974,-0.1649083601418185,-0.20855081754024163,-0.22225041882475016,-0.02362253697966779,0.11825499252662096,-0.01575035517327563,0.23871675554742638,0.29028611416881195,0.07496086054200163,-0.15074601180484842,0.050894759445581,0.1201867596591869,-0.09134479933717901,0.007883969573373228,0.045780361434342914,0.13287638641879318,-0.034870306274506824,0.03488639988037601,0.09015215519028691,-0.024644744032926533,-0.08743712408082087,0.0022112869610864117,-0.1788797484218842,4.882129625016773e-07,2.439161104206278e-07,-2.5724092583834235e-07,-5.702104370897132e-07,-1.9914538473830845e-07,5.6998895936466454e-08,-4.708315826107423e-08,3.6904278666316515e-07,9.458690142238879e-08,-2.807623793454894e-07,1.745960485077802e-07,-8.661968919909668e-10,6.787457820789378e-08,-3.3902107343664056e-08,-2.6451445728215006e-08,8.018955954813833e-08,7.50250274128561e-08,-1.0474681289007748e-07,-1.6906807343008978e-08,1.7756274639513236e-07,-7.837749238515102e-08,-6.532087770683148e-08,-4.3570465013687e-09,8.882845375923765e-09,2.167935830854617e-09,9.288510927074611e-08,-7.396363174705378e-08,3.815932025919011e-08,-1.7336076352236773e-08,-1.002865632759864e-07,1.193262247067839e-07,8.348711610928206e-09,7.903924079122326e-08,-7.924788787000425e-08,-8.082829039413042e-08,-1.1302328635498515e-07,-5.637367317401498e-08,-2.0799783770342195e-08,4.623790253455162e-08,-2.441168428513052e-08,-1.9239456555686374e-09,3.4886999400463026e-09,-2.7867102181389214e-08,1.4237214851497981e-08,1.6394733237667936e-08,-1.0507189951436402e-07,-7.703554108506872e-08,9.921496990639156e-08,1.656566846197638e-08,6.882360725768422e-08,1.849431416345304e-08,7.528053730387896e-08,-5.6403970771778944e-08,3.46935771777801e-08,2.357086704984912e-08,-6.262102558718396e-08,-2.0533923061893944e-08,1.8604984997061536e-08,-4.667073139064115e-08,1.2577116403900135e-08,3.8587344500240484e-08,4.5022393563298735e-08,3.992433900146253e-08,-1.6478254871721276e-09,-4.3050888548501476e-09,-1.1504835667475177e-07,-2.80381655254347e-08,1.0433137426907324e-08,3.0887646412791625e-08,3.936877143728701e-08,3.886134213038073e-09,-2.15492812621898e-08,7.568981982841727e-08,9.269298720943064e-08,-1.8907978432958217e-08,-2.673460686164475e-08,-3.801387712942805e-08,-2.2475650049424978e-08,8.052481277609491e-08,-3.817579876524979e-08,-6.0456769035432956e-09,1.670681792909079e-08,5.069447306382813e-09,1.5071752568207586e-08,5.4192315634971067e-08,1.2249726732971311e-08,3.595472786166454e-08,2.974273778655334e-09,5.2983821774432727e-08,1.4538726639257149e-08,-1.258654031000006e-08,3.6701777172964967e-08,-2.8278184543983897e-08,3.427679080847401e-08,-1.6164551946973305e-08,-4.026445874633078e-08,3.590939240405433e-08,5.27611806050432e-08,7.386529812802856e-08,-9.052533445075284e-09,3.62032533118839e-08,7.008384110551713e-08,2.968599732700028e-08,-4.0496642705889485e-08,-3.04897512098945e-08,5.7225249247561116e-08,-3.637555026636541e-08,5.4857635489735657e-08,-2.7839014996033917e-08,2.3518726466331685e-08,4.324010849376947e-08,1.6205614988828998e-08,7.52476903564947e-08,9.023350885928316e-08,1.7581098382679627e-08,-3.23316236561233e-08,-1.7040804933809994e-08,-5.581167689117095e-08,7.240854027479315e-10,-7.374685362382394e-09,-3.13588108813434e-08,3.017564205454182e-08,-1.5573821732228765e-08,2.5731652086857792e-08,-9.640570008961902e-10,2.381374077098375e-08,1.4091780631275697e-08,-7.296850346172334e-10,-9.072931045350785e-09,3.5465108169652204e-08,-3.1525767593687526e-08,-4.184722919575723e-08,2.2519908937645994e-08,2.1365300528763953e-08,-4.2875386546681327e-08,1.2713822744592207e-08,-5.965216717807031e-08,-4.37235808253833e-08,-4.455242486045563e-08,5.42302436568054e-08,1.1905999852679372e-08,3.1125994143232916e-09,-4.499386177525544e-08,2.3397983467399186e-08,-8.896646169764821e-09,4.1338295453385854e-08,-7.742615054651125e-08,-5.003376844781027e-08,3.157541894616145e-09,-2.2355399975637624e-08,2.7415953424148043e-08,-1.5626048177619367e-08,6.599843516141846e-08,6.283379330729311e-09,6.40118241607146e-08,4.507182307933455e-08,9.030640224505504e-08,7.785997621634344e-08,-1.902395019293124e-09,1.5695739347121318e-08,1.1285654771819864e-08,2.7249790340855284e-09,3.324127001436139e-08,1.543738914477899e-08,-8.199325488011944e-08,-2.815109235998481e-08,2.69552602738532e-08,3.077742929957772e-08,9.04167588439142e-08,-1.6876638087026663e-08,2.6458508578519613e-09,1.1944240527195227e-08,-1.254829777586064e-08,-6.105613270523946e-08,2.814158547859158e-08,-1.2701245791224558e-08,7.996995324971445e-08,-6.569808158607415e-08,-1.2181770758790122e-08,-2.28501088606059e-08,1.324042585987284e-08,-3.5257204156202704e-08,1.45353633851375e-08,-8.947281829319031e-08,-2.3740289623042088e-08,-8.820315748614416e-09,2.034511265014416e-08,-8.753242390635574e-08,1.208357439802521e-08,1.84839655300445e-08,-1.6523669432721988e-08,1.8822530728490605e-08,-2.8316988170962176e-08,-1.849947794951845e-08,4.872134094779934e-08,-5.469695266158148e-08,4.6027640809853665e-08,-2.34325586712103e-09,-2.7380312433988863e-08,2.591260572781806e-08,2.9349628186126075e-08,-2.7542547353931468e-08,-1.829027179711673e-09,3.84379513218569e-08,-2.9548737151552373e-08,2.099215044848446e-08,-5.7368590489215165e-08,2.651438191225708e-08,2.9078366686752233e-08,-2.44106848068526e-08,1.0404606176628306e-08,6.656041930119816e-08,-1.3612146188002328e-08,-6.5553611844348936e-09,1.1873346056345824e-09,6.756551984565817e-10,1.4402148067887977e-09,-2.8550344144395723e-08,1.3771349893776375e-08,-1.308578584380271e-08,-4.122614383206269e-08,-1.1213858568115409e-07,6.633931876054433e-09,-8.255002459378602e-09,1.8416058317205497e-08,6.58629073502226e-09,-1.2616349515104375e-07,4.6154720823032847e-08,-6.17103548816722e-09,7.867903439873203e-09,-2.2723168069394006e-09,-7.255577250120382e-10,3.058547543705048e-08,1.3468635678970386e-08,2.056253936566499e-08,-3.461772452029166e-09,-4.387878627110098e-08,-5.5582132979514753e-08,-1.6336108771275448e-08,-9.305269915715897e-09,4.878507202377147e-08,-5.069311423758216e-08,4.7945821757267026e-08,-3.9545752783531896e-08,-1.4269705014835488e-08,-5.018102988696427e-09,5.459631427506828e-09,4.155390247173596e-08,-2.0505245924840043e-08,-9.636597603224217e-09,-2.2689546429199847e-08,2.4884927660173695e-09,8.570356952591895e-08,1.1869941141107176e-09,3.548321425572709e-08,-1.4208833679085764e-08,-5.332381534939312e-08,-2.9732077508337618e-08,-1.032094251729454e-08,-3.0809066353665315e-08,3.418286543405147e-08,3.3839358093423755e-08,4.333829281555346e-09,2.75433642421552e-08,6.485770365216581e-09,1.9157924996404674e-08,3.2789778225961186e-08,1.963608070587597e-08,-1.7738027047187188e-08,-2.32697028312856e-10,5.998845767352101e-09,-1.0785727699857972e-08,-3.8548015272865666e-08,-5.478006920300871e-08,1.6927172177827465e-08,2.3011686972607137e-08,4.320082760966848e-08,5.252381995307642e-08,8.343409518829503e-09,-4.361196109803345e-08,1.60767590906552e-08,-1.540703442604041e-08,-3.2569604086624127e-08,1.1704509361720739e-08,-1.0816438300587095e-09,1.738826617414535e-08,-4.6460318465710304e-08,-9.045754950642859e-09,-1.493568804744605e-08,4.428248107091193e-08,9.268693298980502e-09,3.594849951049639e-08,-6.243414945455994e-08,-3.085963758142629e-08,-4.3600507648733355e-08,-1.357449902483765e-09,-5.115197468374966e-08,4.117263645297964e-08,2.592666130396548e-08,5.239337741436145e-09,-3.019938202286632e-08,-1.7259620805482045e-08,1.4787921984171781e-08,-3.421491662214393e-08,7.604659863630348e-09,2.8368458693250886e-09,-2.8836926402320273e-08,-2.6734270797135196e-08,-2.903581158841817e-08,-8.201545428909718e-09,4.9428324454259265e-09,-2.392164294429122e-08,-8.144948882016223e-09,-1.9646891238900288e-08,3.632660949826061e-08,-3.2620150192119723e-09,-3.392583286521145e-08,2.9312321514485262e-08,-2.159578578464494e-08,-1.670300311951145e-08,2.427838965979312e-08,3.195397794975019e-08,1.2690249476254856e-08,1.573611135841091e-08,6.526982246346513e-09,6.240516825517517e-09,4.526982039232408e-09,4.747851778397205e-09,-4.317743329540491e-09,2.1281224116265207e-08,-1.3876199956436297e-08,-3.011228946053768e-08,-5.747325115823543e-10,1.1780787317894337e-08,3.648535459865876e-08,-4.649858692529207e-09,-7.800576101724133e-09,1.52871362513185e-08,2.6510575609761666e-09,5.2980706516381204e-08,2.4912482535222047e-08,1.2783436087460132e-08,-1.1176475522844953e-08,-2.1981698933304372e-08,-4.121508451193634e-08,-1.0247385689998723e-08,6.887741364758337e-08,2.3891850164936557e-09,-6.689714124319401e-08,-5.199722077908753e-08,2.795941641403621e-08,6.529816609646133e-08,5.424402371723147e-09,2.1197579858078797e-08,7.047906938617565e-09,1.1726480481089041e-08,-5.698857268032764e-09,1.7452478143220596e-08,3.4299909218438174e-08,3.083474098275474e-08,4.1553759738688356e-08,-9.866235606281748e-11,8.129788772737179e-09,2.23471821603205e-08,2.0686488841348272e-08,1.429202811653596e-08,8.490676888656123e-08,5.632581512315937e-09,-3.112945785171961e-08,4.799158333235187e-08,-4.9695258796944586e-08,-2.1440204805989183e-08,2.973945145701151e-09,1.8454774888820857e-08,-5.4116424723360534e-08,7.3303603534413675e-09,-4.287150393023076e-08,5.6089984226681544e-08,3.106799341401345e-08,1.2003235377866517e-08,-5.3934243182673924e-09,1.3737584826645222e-08,3.27142932743385e-08,-3.13553607245165e-08,1.0012569134909555e-08,-6.305768246450683e-08,-9.338612563802862e-09,2.746463306779745e-09,3.0505325515628456e-08,-1.0899798369434777e-08,1.6120125054253087e-08,1.7685754138963006e-08,5.042251075004778e-08,2.689903091934731e-08,9.4671277345304e-08,1.6042867659327165e-08,6.469812596776592e-08,-4.1843604151048375e-08,-7.662116759815651e-08,2.632398471424935e-08,-7.607997651315479e-08,-9.695465707192097e-09,-2.558097127181025e-08,1.5706893896627605e-08,-3.911853531379794e-08,-1.9784885743612257e-08,-4.753120842748704e-08,-5.548344064743027e-08,3.627526956595517e-08,-6.871762603388731e-09,2.8772285637357342e-08,3.143120039239555e-08,-8.795043462614394e-09,4.386259894184619e-08,-1.0336464033658399e-08,4.403641040706674e-08,6.497625770762738e-09,8.109144458701145e-08,-1.5281274995393446e-08,1.0000947132937643e-08,-4.143306727225071e-08,-4.360418491555773e-09,-1.040964484055884e-08,2.7520072692910347e-08,-5.1435219278195277e-08,1.6282336340323056e-08,-2.651971142686449e-09,-3.200119919055666e-09,-8.40845686134184e-09,6.725981327448949e-09,-1.0744969886067324e-07,-3.007842732868915e-08,9.893068766975155e-09,9.60942347916216e-09,-2.8672387228367846e-08,-1.3945538057669182e-08,-1.0767654601284704e-08,-1.8625553072082468e-08,2.8267945317850263e-08,5.4530105708661125e-09,1.9073746693187843e-08,-3.7532139729457015e-08,-2.534480340876666e-08,-3.647688484598177e-08,1.248725498004255e-09,-5.7444502848946755e-08,-1.853348736979843e-08,1.7987198286384398e-08,-1.0296512264335034e-08,2.8805956453492598e-08,3.6566300709584e-08,3.6812142223396904e-09,7.626961090467788e-09,4.987903184927589e-08,-9.988072251221336e-09,-6.059315826867362e-09,1.8548620639435853e-08,3.5789368357797e-08,9.755940361122484e-09,1.767458450430137e-08,1.571743989126073e-08,7.115309130778513e-08,-6.822649376014844e-09,2.373376341291422e-08,-5.530835772704634e-08,-6.551472309102024e-08,-1.6842631872515668e-08,3.619874619498198e-08,-4.1958639174222156e-08,6.269654279078551e-08,-6.333266343305777e-08,-1.3776065621584621e-08,-2.2881659650364483e-08,6.314853207012305e-08,-1.7269818353149446e-09,-7.427879644694713e-09,-2.29364476023175e-08,2.6187623597406784e-08,-2.493474771103621e-08,7.225371193020358e-08,5.741389710878231e-08,-1.8539058621591664e-09,-1.8850258576286194e-08,5.423630931172818e-08,2.833686733871854e-08,-2.9725241157407822e-08,2.7250805396950017e-08,4.611306465146514e-08,-2.6245610490471805e-08,-1.8885414274083523e-08,-7.973361527968681e-08,8.929173192506745e-09,5.627405708086286e-08,-2.7804573088374696e-09,4.569367008377956e-08,1.6120191348445445e-08,-1.5178835632845278e-08,-1.035634376866934e-08,-5.5277712809886914e-08,-6.90306975019428e-08,6.62609520307722e-08,-2.6816206255553254e-08,-5.134295562314595e-08,1.7162642453050214e-08,-5.042925724230152e-08,2.523826247990968e-08,-1.5705373973551318e-08,-4.834411759802038e-10,-6.3701010993844065e-09,3.908354307205486e-08,1.73971148945129e-08,-2.9225448755498817e-08,1.5136431968931774e-08,-4.272982251363189e-08,2.997817225014465e-08,5.2383110488163354e-08,-4.84629783525925e-09,-4.240085094142643e-08,-4.4449000473345546e-08,-8.560304048943479e-09,-2.890187092430274e-08,-9.061992568490385e-08,1.8295595594075564e-08,3.67686983082649e-08,-4.3627143161972803e-08,5.343827400028367e-08,-6.805737429171899e-08,4.3171301922217964e-08,-3.451441875357286e-08,4.370108949713902e-08,3.349103869232373e-08,-2.9457556061096568e-08,-3.401033021876998e-08,2.478603225442022e-09,6.990848638865899e-08,-1.1552933289193934e-07,-4.602314271351382e-08,-1.6242904021801507e-08,6.119726009279347e-08,-2.7326369177876897e-08,3.403414980396313e-09,4.3878207164893546e-08,-4.967777600395351e-08,2.4053185998518245e-08,-1.228570768729842e-08,5.879370747370605e-08,5.974149906717852e-08,-5.942525799218501e-08,-4.3033934651881545e-08,-8.917971344724052e-08,-5.681479331443029e-08,-2.396088452649714e-09,3.9343049026974164e-08,7.793765388619533e-08,-5.7449930035424757e-08,-3.2406102912219126e-08,4.4251880243484365e-08,-4.77818918875883e-08,-3.556328093123895e-08,2.393821266211127e-08,-7.958649363495884e-08,-4.273187859116234e-08,5.220284926554797e-09,2.023416241503373e-08,-4.0566495940197456e-08,6.389822915231491e-08,5.27939003625022e-08,-1.5438926859179247e-08,2.59755731368827e-08,2.5421629468169726e-08,-6.00731224001394e-08,4.8643193237274396e-08,7.674323621031931e-09,-1.8786617955734997e-08,-4.9103227345304035e-08,6.339113323150514e-08,-2.3630892936887804e-08,6.419825782089106e-10,-3.749359017701792e-09,1.5616475779189898e-08,-4.380256407587879e-09,6.668764071515731e-08,-2.7110189704249166e-08,-1.2680905880912974e-08,1.0816753437392634e-08,-2.096552931263318e-10,4.490533389578388e-08,-3.890154641472687e-08,-1.3734358011996406e-08,-6.266240940022705e-08,-5.346247803489357e-08,-9.054249766604627e-08,2.064532221568438e-08,3.6013943501000956e-08,-8.682726496123117e-09,7.130330756388581e-08,3.259900871466215e-08,-3.814560268350364e-08,-7.425126358207024e-08,9.6617835121382e-09,-6.631224847009065e-08,-5.955098839049988e-08,-1.5014846196231835e-08,4.283357296630541e-08,-1.0117572185608381e-07,-1.145393196955169e-08,6.414674169619161e-08,1.8348658453737343e-08,-4.821324717241282e-08,-7.07149456768974e-08,8.65600627286689e-09,-3.579345686510749e-08,-7.610779545474955e-08,1.22044993000614e-08,8.005997035459567e-09,-4.378038577501631e-09,-3.240514429014851e-08,5.462507762787894e-08,-4.4174048585698955e-09,3.5480490309658386e-08,-1.7639222499310492e-08,4.8721652573524565e-08,2.1916731984816806e-08,1.731279405947639e-08,3.397545067507224e-08,1.1095186908116617e-08,-3.05974877379267e-08,4.4399348697599095e-08,-2.6086736770736252e-08,1.0407429029690718e-08,-5.459702689947221e-09,1.0451977353054254e-08,-2.537568272176216e-08,2.6795876739704738e-08,1.0108206001391284e-08,-6.107394701082569e-08,6.442215527702189e-08,8.086638675353086e-08,8.459843381380949e-10,1.8121882050525784e-08,-2.3235353058259633e-08,9.133185513432451e-09,-4.540442244405085e-08,8.494284123305995e-09,1.9432459336110597e-08,-9.8064396047981e-09,-1.626284061584382e-08,1.7403942495497482e-08,-6.143582648165946e-08,-1.6712159434106866e-08,-1.7047054989838273e-08,6.870248753232389e-08,7.291993120439599e-10,3.9813378982511693e-08,9.044016896497808e-09,8.450474431320742e-09,-8.708398696599673e-09,-5.651378692794751e-08,4.245132214503178e-08,2.0762981320365803e-08,2.6904765512703044e-08,-1.942926775022613e-08,-6.129128773957326e-08,4.980342482863165e-08,2.851217588417665e-08,4.728203639725592e-08,5.5107324203884644e-08,6.502869420721424e-08,-8.869089535012975e-08,-1.5378235938834361e-07,4.058828023678629e-08,-2.642164498301014e-08,-3.141811139029116e-08,-3.898367884058729e-08,-4.0240502652277854e-08,-1.3326152709103312e-08,4.2027077706841e-08,-2.1251575665903744e-08,-3.5259882236182705e-08,8.142681834355514e-09,-1.3554776856494755e-08,-1.210298566922674e-08,9.14618343839102e-08,-1.3367893764160144e-07,-1.694384466066623e-09,-6.687422388074182e-08,-7.301951437943544e-08,-6.443241096221186e-08,9.062048222929775e-09,1.0630788277454783e-07,-8.969518061618942e-08,1.5015992484157525e-08,9.166868902843461e-08,-8.34487731138367e-08,4.6132641068341584e-08,2.995303383102055e-08,-1.3575748680771937e-07,-3.343341725692284e-08,-1.5666813679704461e-09,1.226722618485887e-07,2.982017666131043e-08,4.8021143728149696e-08,-2.2429085977382357e-08,1.5954466392464894e-07,2.565024170841923e-08,-3.385037491976384e-08,1.5903907915615356e-07,-4.938630682183032e-08,2.3594290665673867e-07,-1.9835623499275812e-07,1.033408003614511e-08,1.3540683263535414e-07,2.708881918778161e-08,-4.953583965239261e-08,1.984653663633651e-07,2.1567910890585296e-07,-5.219477889895074e-07,5.757740018097479e-08,6.028322880879955e-07,2.0
10.806103044663228,12.939093796880652,7.480391537288561,-1.8126111842723192,4.712404936976107,2.2371657600767163,-1.0216633948370837,-0.8726202502486546,-2.1897976186237704,-5.619872273937167,0.3909482493098375,2.2569719893306397,0.3909492210772445,-1.8520066237590573,1.2135419410042287,1.56788710101949,1.0565196701665454,1.2160579830925295,-0.7137176423232328,1.5737783447025793,2.0082563755299523,0.6797505481849386,-1.0909474150526663,0.40046921760319054,-1.1202416762330902,-1.8158975556786752,-0.6758650305237183,-0.7725340790432668,-0.9231225244888869,0.14289832271764746,-0.746267995073313,-1.023827779019716,0.16980402574651743,-1.0091743220724487,-0.8294749831559065,-0.3228563811030925,1.7745547651259517,-0.8284877107584125,-0.12679615741429393,0.3300195276479565,0.5379798273751141,-0.08390603161887075,-0.9178670592671078,0.0241708937187034,0.6346723827678931,0.23950648347398912,-0.9439572246455039,-1.3215725868872576,1.3126571122213548,-0.4993939893695212,0.9310551977011968,-0.8705513276361996,0.22869608536197306,0.9277382211214813,-1.1174118314432944,-0.09572751002983182,-0.7013727122164684,0.16842222760936543,-1.2054680937703641,0.46171744992601227,-1.1203010203107397,-0.08353399332883676,-0.08587471077761483,0.3783766956025276,-0.3513104883410021,0.2784982637529955,0.2941357044612748,-0.9956856730308197,0.8401811518502781,-0.1763864351442689,-0.3106183560655041,-0.09582604182438709,1.3491890308735557,0.0636680115106997,0.7418544188571466,-0.09467056813262065,-0.07789746841357292,-0.25406000734760437,0.15718635644906964,-0.3095287507658813,0.6114118663118078,-0.10560702456063231,-0.5998008414857716,0.4064531710267944,-0.10045531122272533,-0.22689981315692995,0.7864779742667012,0.03719785769757877,0.3650899700170039,-1.4855245441027924,-0.03712208527820343,-0.8761184911109706,0.12284259926213106,0.3598916133555313,-0.16180161486458744,-0.4395049420485664,0.7528947356950457,0.5769713988430776,0.18555011250287967,0.9084785585782298,0.49509528528765173,0.24703167801594061,0.0031188617196757917,-0.09380280270708752,-0.01121495963140244,-0.572483820987755,0.34987873344806103,0.13624416543961887,-0.5928928468631454,-0.05633082664792577,0.5442397865291126,-0.35675000744104657,0.12530822357996127,0.2257284502149849,0.009267606388446648,-0.0951034356487149,-0.028182193098908015,-0.1727257362651897,0.10522589953379889,-0.06423241819109077,0.6471334495511176,0.4642204291164541,-0.38312935530033393,0.08066983450156473,0.07054411207768058,-0.15115093590853057,0.3847250480157574,-0.055737714253953116,0.3340611760842692,-0.012919158645717937,-0.06292417133028369,0.2542831663475589,0.07362948974088937,0.34257290432718573,0.18327134079131296,-0.2805297998985977,-0.1808440331911721,-0.31719165497073953,0.13466694161194998,0.07267650013389271,0.05863903115655261,0.21621679799766716,0.3292418724504091,0.13661009592769818,0.10461634722933197,0.1263609673427371,-0.02179378777905272,0.44174399565020495,0.45306874188404134,-0.015879856103926976,-0.011839832526348293,0.1791552596450211,0.43903689264037477,-0.2616989256029925,0.11301886840992315,0.11159484126005481,-0.29068631189219374,-0.30052824761386876,-0.6282861769595846,0.11795141160679457,0.2193424339169044,0.1525742928598335,-0.20237006230140092,-0.025943310873587644,0.1548968480578769,-0.11891462831227051,-0.4018692538636698,-0.3355639840025258,0.05963673274172576,-0.34005076546589963,0.13738732985111968,0.24562022269963169,0.1433954267080983,0.08619580624602435,0.25586701299015746,0.11884645330092827,-0.06896387648825592,-0.12140790184263439,0.02331923645324907,0.12776031221626044,0.04184224578117107,-0.16185063428466856,-0.05637636120142345,0.07001537383172524,-0.0884873697823203,-0.40802825943182125,-0.07539078020029363,0.050049180703701734,0.23810036906728638,0.1144667991357049,-0.14251061946990007,0.10386376486195041,0.03366176831651291,1.789932398132965e-07,2.87651776620379e-07,9.58159691366589e-07,-2.818012465599651e-07,-5.842149581880562e-07,4.0766857711815874e-07,7.19980308705459e-08,-1.577923921525226e-07,3.8329807683368244e-07,-2.5187757629607788e-08,3.080256014142968e-08,-1.1411860167953591e-07,-2.8930958639872273e-07,1.7511522887314612e-07,9.595704730802623e-09,1.2118197223465188e-07,-2.823692001330258e-07,-1.0998871857736958e-07,1.6502352151448463e-07,2.303680994852897e-07,2.715375274631171e-08,-1.8021285097535866e-07,1.0192360139216206e-07,-6.921798784143007e-08,2.0199640682339037e-08,1.0597374222598432e-07,1.0380486109573539e-08,4.731665204094071e-08,4.0875090367986644e-08,9.610883835997619e-08,1.0066895622662386e-08,3.77424331787779e-08,7.463707374366635e-09,3.942108154492141e-08,2.547708549682781e-08,-1.355519461121446e-07,-6.365947324837862e-09,2.0074420903348766e-08,1.5860926072530646e-08,-8.856392397227353e-09,-1.310514505248328e-08,2.0586739285510802e-08,-4.2748192208286184e-08,-1.609105029776181e-08,-1.3825090156016628e-08,2.958731530611214e-08,3.115300412082078e-08,5.392744495402724e-08,-3.495227313132787e-08,6.043433062319359e-08,-5.890585186296704e-09,3.22096511129466e-08,4.37237401840207e-09,4.8210108127832996e-08,5.9365145382850315e-08,9.835799597013306e-08,5.833732807936087e-08,-1.4021950933695848e-08,-1.401763981001558e-07,-4.194771763277316e-08,7.215617911504602e-08,1.88077663443309e-08,1.9411492413468068e-09,-1.8389589628853287e-08,9.032018788435181e-08,-4.2130112343219395e-08,-3.091372327568287e-08,8.150728036948607e-08,1.1333979865746358e-07,-3.2308271336045635e-08,6.049673095809283e-08,-8.041897218979965e-08,1.0888718449120205e-07,3.315829280592375e-08,-7.408662411334532e-08,5.991179321401807e-08,-4.57273159892857e-08,1.1649855524709096e-09,-6.48435599659436e-09,1.2202739552505393e-07,2.7938713002828575e-08,-6.188551504582307e-09,7.567697482557811e-08,7.462408199709891e-08,2.3497244983072818e-08,7.880484362288165e-08,6.223658716164593e-08,-4.703712791487291e-08,-1.0055547616794058e-08,7.724055561819654e-09,1.985222092271144e-08,1.2022161736957582e-07,-2.8207510993638607e-08,3.128232575755341e-09,7.474651930738929e-08,-3.394093442410373e-08,-1.5947961673479227e-08,-3.5617223392847563e-08,5.6118714564235006e-08,-3.761124517387415e-08,-6.61213001573735e-08,6.623207506745166e-08,3.607726550836077e-08,4.129687991571984e-08,-6.835833404883473e-08,-1.0715127118920975e-09,3.837146836382921e-09,-5.199018388024612e-08,2.1865573240908986e-09,3.88005367002453e-08,7.728059525646813e-08,-1.4658699837299949e-08,9.87335097013542e-09,4.64457666216056e-08,5.850256945549859e-09,-7.347540953439591e-08,-2.4841913720541342e-08,-2.0612731188585087e-08,-1.719957107293446e-08,-4.375783975441028e-08,-1.9530025277547658e-08,9.290815336515656e-08,-1.9505457249380243e-08,-4.206860632072207e-08,2.31089571922638e-08,4.1767859879082714e-08,5.246258421437444e-08,-6.153435727629386e-08,6.447017650290654e-08,2.209865562763369e-08,-3.573802204170917e-08,-5.260077651225714e-08,2.6029858213316714e-08,-2.5671505310409515e-08,-1.7344472469371652e-08,5.501793864937099e-08,-6.818801212560288e-08,-4.066093239885049e-08,2.887421361730258e-08,4.21437705705463e-08,-6.867051122183554e-09,-6.537239144455143e-08,3.360994027534758e-08,1.1924507492544478e-09,-1.159519361082495e-08,1.3671154847072486e-08,-5.204203068487345e-08,-6.327537686867668e-08,7.578947572306483e-08,-1.7176364386362053e-08,-7.378506861055456e-08,-1.3263032228039151e-08,6.652515441296636e-08,1.3675644852662039e-08,6.45577579172496e-08,1.1148411555028659e-08,5.3103046300517764e-08,2.6218340026806786e-08,-1.357543585184251e-08,-8.436709664216835e-09,5.193815097448429e-08,-1.580429237479919e-08,-3.535708198443288e-09,4.658546978730804e-09,-1.6580290196355207e-09,-1.9705455996110732e-08,5.58476525580609e-08,-4.555314847554115e-09,9.486938851166471e-08,4.707572626161394e-08,-3.8313505729137276e-08,-2.510691836377088e-08,4.648800153161936e-08,-1.221035494936018e-08,5.1010993623590295e-08,-3.5757860894491955e-08,3.325993425118412e-09,-1.2094881896018705e-07,1.2219658118706178e-08,-4.889173804700775e-08,1.2968094903476057e-08,8.718801181029079e-09,-1.4682403737253935e-08,-3.1127320027080074e-08,-2.2782673247956353e-09,4.583794488421944e-08,5.095377619834807e-09,-5.660321181211181e-08,7.524861872498789e-08,2.561449202742594e-08,-4.081564378144442e-08,1.7010383435156484e-08,-1.1105500075103691e-08,-7.614508329423231e-08,3.818940436106644e-08,1.604367888541347e-08,1.258259364755876e-08,-1.8067891627282506e-09,-2.986209934885409e-08,2.1056668353391927e-08,3.6926985885754604e-08,1.024985710196269e-08,3.240494705902819e-09,4.652180095321423e-08,-7.839248283847411e-08,4.352418483954956e-08,-9.743173390308613e-08,-1.1919079452582526e-08,5.162500674171788e-08,2.3477691180051607e-09,6.57615045196458e-08,8.911116428089727e-08,-1.1340958755434727e-08,4.107528304292396e-08,1.010964595371533e-08,-5.216405475627628e-08,6.947761457820611e-08,-1.2759114650928716e-07,3.3889428929789744e-08,1.5851123053023386e-08,2.2783615716281957e-08,-6.078761488614859e-08,-6.243795869220747e-09,4.2815250483885237e-08,1.0128343902460202e-07,2.1380246351121457e-08,-1.0856967933015049e-07,1.81453088665684e-09,1.0178507703351158e-08,1.5241676115662628e-09,-1.4402088605036667e-08,-2.9402164342107184e-08,-2.5157385064034088e-08,-7.501201632065246e-09,-1.1179128914240444e-08,1.2070325655644254e-08,-2.2057992127288983e-08,-4.7973250053012784e-08,-1.5254888879878692e-08,-3.5957513078166414e-09,7.742648186481738e-08,-2.667958769880796e-08,4.7767412032773127e-08,-6.95192225036445e-08,2.5698927236250668e-08,2.845546592800119e-08,3.470036224334505e-08,5.514202097711696e-08,2.29841125021224e-08,5.364505978322498e-09,-6.8765099170420285e-09,2.055284915869482e-08,3.5482910942796764e-08,-6.368507739218376e-08,4.031252899550086e-08,-1.830462244278852e-08,2.1995691934506567e-09,-2.6322426349700834e-08,1.4608755594114342e-08,1.5435827572726768e-08,1.5261015590128935e-08,-8.512633903334788e-09,1.6754920478811997e-08,7.312844618745373e-08,2.2530235732620696e-08,1.2277820662931482e-08,-2.7309644823336754e-08,1.0989534726668637e-08,-2.635749551949118e-08,-6.571412414224653e-09,-1.946973124389295e-08,-4.0440441662070725e-08,-3.1210355411204205e-08,-4.196019531832462e-08,-4.8457290249825924e-08,8.728146316805407e-08,-5.826372014017256e-08,4.324623098517222e-08,1.8895696757281755e-08,-5.1467721265407995e-08,1.9294331909947005e-08,-1.5462867715421158e-08,1.727502377257828e-08,1.0052937815530072e-08,3.209961631223113e-08,-3.200099775446663e-08,-6.590053533428453e-08,-2.0038089437734996e-08,1.9872124945585767e-08,6.923240031264655e-08,-2.901196824445229e-08,2.3583532460236256e-08,-1.909820287332442e-08,-3.5375135876147823e-09,2.25126793179653e-08,9.183217658526033e-09,-1.052637045584337e-08,1.7909909943991664e-08,6.823269729783199e-08,1.3755153252525965e-08,-3.861727834383877e-08,-2.9519570905744974e-08,3.866009401498616e-08,-7.172895186147166e-08,4.621539859139823e-08,-5.5045376395890244e-08,-2.0815699525167375e-08,-1.889822742739966e-08,-5.442879025263636e-08,1.484684417074611e-08,3.0358885849679496e-08,-3.170197609980718e-08,-5.751961126843064e-08,1.4118870017565399e-08,-3.10656459376335e-08,-4.324956059953422e-09,-4.999738165145651e-08,2.1162848563849312e-08,2.779892149806784e-09,-1.3612819760311368e-08,2.6990764179224414e-08,1.8181680036533088e-08,-2.9222560524178043e-08,5.898838328910472e-08,-2.1827268686935852e-08,3.523703917540644e-08,2.3833904183589993e-08,1.9327872372021382e-08,1.9276315030292146e-08,7.257791201364938e-09,6.223472084898596e-09,2.6405684104557903e-08,-4.491312982635165e-08,-3.767831803502819e-08,-3.1102093012158605e-08,-1.5203671224761628e-08,-5.552527160279652e-08,-1.4720046181970758e-08,-3.95953277804173e-08,5.911781453260545e-08,1.1101662256152167e-08,1.3014884003847982e-08,-1.8384407857174878e-08,-3.5024457070709225e-08,-5.3035996705474986e-08,2.2461636411952313e-08,4.8812607317261225e-08,-2.1952578088679786e-09,-1.0360658103669707e-07,-2.958346606574125e-08,3.427397439470514e-08,2.563280099288079e-08,-6.689466675036115e-09,1.9746459828384744e-08,4.231685624134229e-08,-4.061208567357477e-08,2.746683516741122e-08,-3.735387027470338e-09,1.0602426242511953e-08,5.190428892243304e-09,2.9155030584204766e-08,3.444861007562139e-09,-8.692190633929897e-09,-2.8076407837529516e-08,1.9174409650324353e-08,9.663484956679014e-09,5.1775103884765805e-08,-2.0470068681777143e-08,2.8602147067458006e-08,9.39063246607752e-09,-7.2483354845998e-08,-7.753612019448242e-08,2.2811382838217042e-08,7.816683800232482e-09,-6.246395173326036e-08,5.028467230105971e-08,9.3752282881443e-09,-3.9087631031192727e-08,3.09523348791807e-08,-4.651722960991034e-08,-4.454593632852166e-08,3.394093510411533e-08,4.6324605207370695e-08,7.50020701101306e-09,-2.8808230911891997e-08,-8.021761072063427e-08,4.607575962434218e-08,3.3380427588713957e-09,3.0484553270593295e-08,8.383059135752546e-09,-1.2203987265202443e-09,4.729773285527816e-08,4.5091536504671126e-08,6.150130361232131e-08,7.24686540776176e-08,6.788961476322797e-09,5.819149218044828e-09,8.935568625301205e-09,-4.741394520058062e-08,-2.0472162964857432e-08,-4.384059887341252e-08,3.345536120358261e-08,1.974967731022126e-08,8.530554249097655e-10,7.124024037352683e-09,1.9452026586708193e-08,-5.953685050519297e-08,-6.415153877559199e-08,3.813049911927102e-08,-3.7500300309467605e-08,1.2915498337484621e-08,4.797311865811782e-08,5.692345837748913e-09,3.347926208485674e-08,-2.9948099555809904e-09,-7.983961262947314e-09,-1.450223829913e-09,8.743810513134331e-08,2.1814179212986673e-08,5.49476111277869e-08,-2.5168107906786696e-08,-3.19675652615814e-09,3.4364960925514776e-08,-7.764892812067714e-09,-5.183263036140362e-08,-6.352133125053783e-10,-3.473165849365856e-08,-1.59945918176696e-08,-2.5323100311114288e-08,-5.7561692551333365e-08,1.5763153740633307e-08,-6.048215422937986e-08,2.4230142448011804e-08,-4.682088761143177e-08,-5.446369373898752e-08,1.6539492664335853e-08,6.989670850443552e-08,-2.0611569784279027e-08,-3.7059267998101886e-09,1.123331141994477e-08,1.2640208643666107e-08,-5.607154293651995e-08,1.0012361006256354e-08,-1.3840460999503534e-08,4.878515312556342e-08,-1.0748416184869214e-08,6.564283491772294e-10,-6.237816362053561e-08,-7.932488527151449e-09,6.975178862278497e-08,1.2268563953643508e-07,3.3503970597870136e-08,4.429180303772151e-09,1.308207486783175e-08,6.525877128266133e-08,-9.265684053350043e-10,5.2072021250459954e-08,9.484048341112938e-08,2.1440749897738698e-08,2.787763982159408e-08,-7.087096288993511e-08,1.2054610697143087e-07,3.339390938772446e-08,4.459598179629154e-08,-9.478254078820747e-08,-2.4191615599633565e-08,4.287014188086857e-08,2.3336424626041463e-08,-2.7169963556783472e-08,4.73366455755464e-08,-1.747773822891041e-08,3.582414075109508e-08,-3.8644902555784455e-08,3.677258640470693e-08,6.329996486698075e-08,2.3625801294502313e-08,-9.213997099327687e-08,8.140354723629173e-09,9.251547451738507e-09,-1.0284981477592936e-08,2.4141012744394175e-08,9.499767222864719e-09,3.762831102260833e-09,2.8779441725579336e-08,3.9114259053896205e-09,-3.618313260123074e-08,-1.2293264628482348e-08,4.265762398869555e-08,-1.4221904223732373e-08,-4.168397849113603e-10,-4.235204609237542e-08,3.652556972155718e-08,4.27035175970536e-08,1.3473920396078753e-08,7.576540211884364e-08,9.352482062408018e-08,-1.014078299110821e-07,-3.2657926543611104e-08,-3.9364090320681555e-08,-2.232031927340561e-08,8.741987528315676e-08,-1.2037142393950262e-08,-3.047535604427942e-08,1.2446527197784718e-08,-1.3781042251803655e-08,3.085684807668798e-08,4.630501926339292e-09,-1.3305498425264517e-08,8.077865390476724e-08,-3.272434612178188e-08,-6.53130064337537e-08,-1.139612020722991e-08,2.6976775840958922e-08,-1.633323853944546e-08,-7.73884364230204e-09,1.5326997046538615e-08,-5.264600116960949e-08,6.850807143798932e-10,-2.2950995492987403e-08,-5.930874286130816e-08,-5.403137159909477e-08,-1.0473999610682849e-07,-3.276971136112472e-08,-5.24121495371066e-08,-5.408636280512802e-08,4.366683304876662e-08,-1.0465850602825455e-08,5.563443783440647e-08,-4.6353854407654715e-08,4.156134061905625e-09,3.7484673795495915e-08,-1.541154300011005e-08,-7.184561834350234e-10,-9.755513757925272e-11,7.122771278345041e-08,2.5914628956624775e-08,-6.726453456729065e-08,-2.384928780851947e-08,7.496092811754007e-08,-2.34277638955227e-10,-2.273497501370514e-09,5.323354508590672e-08,-4.544605430867321e-08,4.7726981505791244e-08,1.8324934680791216e-08,-5.5297284473621033e-08,9.57928249223361e-09,5.944240616395646e-08,1.3894791317525801e-08,-2.1102496472469312e-08,-8.287995456601749e-09,-6.033518440418106e-08,-9.207204849925876e-08,6.992188550380973e-08,-8.263798291496816e-08,-7.017181791191263e-08,2.7802477348126686e-08,1.772505486830056e-08,9.23158532950552e-09,3.2836904334532235e-08,-4.0652449351252784e-08,2.112171055852069e-08,4.3476070916981246e-08,1.6240209940732164e-08,2.0177015974676138e-08,6.000868106592616e-08,4.87134499405073e-10,-2.5631639311018972e-09,-3.186901166574163e-08,-1.032808061296464e-08,-4.974413363167951e-08,-2.1000425343142837e-08,2.1717048298564023e-08,2.6336698599749298e-08,-9.223457629603526e-09,9.442030279860347e-08,-3.4303904633548044e-08,-1.7664699591968258e-08,-4.534489994600932e-08,2.4424304800874097e-09,-2.049920403389416e-08,1.287478820777288e-08,-3.027903358598927e-08,-9.562197977874831e-09,3.1305295938865996e-08,-1.5235229383625537e-08,2.319804487393995e-08,-6.449336956149132e-08,-6.59495560384471e-08,-8.806006868145033e-09,-5.4276489025451014e-08,-1.601574368265135e-07,5.27905122393868e-09,7.433997722960939e-09,-5.794182272866877e-08,3.6247403883971074e-08,-9.17331179073333e-09,-8.516356296561778e-08,4.492405308864633e-08,9.344088736096268e-08,5.096995925324421e-08,-3.0653090066223854e-09,1.2594104009666651e-08,6.074180346204994e-08,4.972882891585151e-08,4.0534135020697803e-08,4.984975099375788e-08,8.32120349847365e-08,1.0891390012091051e-09,1.9458506028691147e-08,-2.1853373360913864e-08,1.2544226130062341e-08,-6.171395158793835e-09,8.935478362781524e-08,1.982683101031668e-09,8.18104550770471e-08,6.204157737554894e-08,-5.181719447272526e-08,-5.668233534796008e-08,-4.761693817023627e-08,6.720422579542529e-09,4.792892308036478e-08,-4.0367364589899424e-08,4.169846865020865e-08,6.523304746375302e-08,6.018436754517964e-08,5.679076292564034e-09,7.065487334090292e-08,4.432789885155941e-08,-5.180237735991078e-08,-2.0470722478238557e-09,1.3965379935809707e-08,6.615396719311661e-08,-7.452177588906927e-08,-1.1349053141707088e-08,-1.3440618618076883e-08,-1.903004265280117e-08,9.287020485970743e-09,6.055263605808658e-08,-2.6995256932615952e-08,3.129702319526473e-08,3.5289796640469717e-09,9.517795329649914e-09,-8.037113435888088e-08,-4.012835248465296e-08,2.5999821212652208e-08,-3.771513751305022e-08,1.2016326295105628e-08,-4.9876580310304064e-08,-5.373550471254873e-08,4.897703895223593e-08,5.157193547211669e-08,2.188827843974117e-08,6.465411139799926e-08,-4.620507360053594e-08,1.2356189030282572e-08,-1.4212739596342061e-08,-2.024748402273957e-08,-5.96833218541315e-08,-2.2182234885731456e-08,5.2081112256185946e-08,-1.52584019724733e-08,1.2402031401848035e-08,1.2485267653072896e-08,8.213291227687769e-09,4.436103478999698e-08,4.65114675940459e-09,-4.5719539931710074e-08,-2.3380942792972093e-08,-2.8796113049622818e-08,3.9890881181614546e-08,3.757845756791056e-08,-1.1193673141174365e-07,2.4545379229135023e-08,2.7228787585764636e-08,2.1071601641331483e-07,6.23247654596426e-08,2.2069916449929394e-08,-6.78912550622357e-08,1.2182750086520144e-08,-3.951619720332644e-08,-2.377142463427795e-08,-4.838740172430356e-08,-2.623801308165863e-08,-2.0393672861551693e-09,7.637741844535029e-08,-2.203179475523953e-07,1.1316557912977032e-08,-5.13640053823039e-08,1.3290808886790018e-07,-1.2153758111033142e-08,6.127248908249783e-08,2.66696192907645e-09,5.456270729675694e-08,-8.439244747471264e-08,-1.2630454637729827e-07,1.5684506238233809e-07,-6.050264200752054e-08,2.094207551261995e-07,1.6792164919676722e-07,-3.395593273225472e-08,-5.293884466905929e-08,-1.345818063103188e-07,9.026820529944857e-08,-6.825392484532955e-08,-9.299849768051871e-08,1.4738823579663052e-07,6.658412543547598e-08,-2.162466569977095e-07,1.4113377030944285e-07,-1.2355765877103408e-07,4.766007311030052e-09,1.0272964479085545e-08,4.843602163795424e-07,9.815203894092406e-08,1.9805679096762674e-08,2.1996591131889787e-07,5.399209421774742e-07,1.066886248679566e-06,3.0
